{"learner":{"attributes":{"scikit_learn":"{\"_estimator_type\": \"regressor\"}"},"feature_names":[],"feature_types":[],"gradient_booster":{"model":{"gbtree_model_param":{"num_parallel_tree":"1","num_trees":"200"},"iteration_indptr":[0,1,2,3,4,5,6,7,8,9,10,11,12,13,14,15,16,17,18,19,20,21,22,23,24,25,26,27,28,29,30,31,32,33,34,35,36,37,38,39,40,41,42,43,44,45,46,47,48,49,50,51,52,53,54,55,56,57,58,59,60,61,62,63,64,65,66,67,68,69,70,71,72,73,74,75,76,77,78,79,80,81,82,83,84,85,86,87,88,89,90,91,92,93,94,95,96,97,98,99,100,101,102,103,104,105,106,107,108,109,110,111,112,113,114,115,116,117,118,119,120,121,122,123,124,125,126,127,128,129,130,131,132,133,134,135,136,137,138,139,140,141,142,143,144,145,146,147,148,149,150,151,152,153,154,155,156,157,158,159,160,161,162,163,164,165,166,167,168,169,170,171,172,173,174,175,176,177,178,179,180,181,182,183,184,185,186,187,188,189,190,191,192,193,194,195,196,197,198,199,200],"tree_info":[0,0,0,0,0,0,0,0,0,0,0,0,0,0,0,0,0,0,0,0,0,0,0,0,0,0,0,0,0,0,0,0,0,0,0,0,0,0,0,0,0,0,0,0,0,0,0,0,0,0,0,0,0,0,0,0,0,0,0,0,0,0,0,0,0,0,0,0,0,0,0,0,0,0,0,0,0,0,0,0,0,0,0,0,0,0,0,0,0,0,0,0,0,0,0,0,0,0,0,0,0,0,0,0,0,0,0,0,0,0,0,0,0,0,0,0,0,0,0,0,0,0,0,0,0,0,0,0,0,0,0,0,0,0,0,0,0,0,0,0,0,0,0,0,0,0,0,0,0,0,0,0,0,0,0,0,0,0,0,0,0,0,0,0,0,0,0,0,0,0,0,0,0,0,0,0,0,0,0,0,0,0,0,0,0,0,0,0,0,0,0,0,0,0,0,0,0,0,0,0],"trees":[{"base_weights":[-1.6611844E-2,3.544268E1,-2.8969124E1,4.0343674E1,-2.2461078E0,-4.7121426E1,-5.937536E0,4.540697E1,2.7102345E1,8.719976E-1,-8.663688E-1,-4.8441708E1,-7.919437E0,3.6339476E0,-7.7414927E0,1.2753531E0,4.5641704E0,3.042077E1,1.0999398E1,4.33652E0,-3.1045964E0,-4.1923795E0,-4.9702973E0,-3.6964685E-1,-8.735113E-1,4.646468E0,4.0427208E-2,-4.678394E0,-1.0418347E1,3.1023798E0,5.478532E-1,1.496813E0,-8.6629003E-1,6.458193E0,1.8812696E0,1.2770997E-1,-4.1492567E0,8.3260673E-1,5.3146667E0,-2.1102502E0,2.542813E-1,-2.5305538E0,-5.5283E0,-1.0115179E0,-1.8121468E0,7.214238E-1,2.9535323E-1,-4.7504663E-2,4.7094798E-1,-5.4067165E-1,1.6035318E-1,3.228531E-1,-1.7714691E-1,6.3030547E-1,2.7648866E-1,-2.921469E-1,-7.714691E-2,-4.7092938E-1,-6.4630926E-2,-6.065916E-1,-1.6179056E-1],"categories":[],"categories_nodes":[],"categories_segments":[],"categories_sizes":[],"default_left":[0,0,0,0,0,0,0,0,0,0,0,0,0,0,0,0,0,0,0,0,0,0,0,0,0,0,0,0,0,0,0,0,0,0,0,0,0,0,0,0,0,0,0,0,0,0,0,0,0,0,0,0,0,0,0,0,0,0,0,0,0],"id":0,"left_children":[1,3,5,7,9,11,13,15,17,19,-1,21,23,25,27,-1,-1,29,31,33,35,-1,-1,-1,-1,37,39,41,43,-1,-1,-1,-1,45,47,-1,49,51,53,55,-1,57,59,-1,-1,-1,-1,-1,-1,-1,-1,-1,-1,-1,-1,-1,-1,-1,-1,-1,-1],"loss_changes":[1.3110136E6,1.06115625E5,2.9362788E5,3.2828188E4,1.3482709E3,1.9957188E4,5.3980264E3,2.22325E3,7.306797E3,6.4720514E2,0E0,1.04025E3,1.5934937E1,1.8173785E2,2.0995195E3,0E0,0E0,1.6048594E3,2.1585608E3,1.1808133E2,1.0600142E2,0E0,0E0,0E0,0E0,9.496326E1,6.994786E1,2.1236768E2,1.4131055E2,0E0,0E0,0E0,0E0,1.3138428E1,8.887128E1,0E0,1.3888007E2,4.9393417E1,6.57384E1,5.348486E0,0E0,1.488517E2,1.7518726E2,0E0,0E0,0E0,0E0,0E0,0E0,0E0,0E0,0E0,0E0,0E0,0E0,0E0,0E0,0E0,0E0,0E0,0E0],"parents":[2147483647,0,0,1,1,2,2,3,3,4,4,5,5,6,6,7,7,8,8,9,9,11,11,12,12,13,13,14,14,17,17,18,18,19,19,20,20,25,25,26,26,27,27,28,28,33,33,34,34,36,36,37,37,38,38,39,39,41,41,42,42],"right_children":[2,4,6,8,10,12,14,16,18,20,-1,22,24,26,28,-1,-1,30,32,34,36,-1,-1,-1,-1,38,40,42,44,-1,-1,-1,-1,46,48,-1,50,52,54,56,-1,58,60,-1,-1,-1,-1,-1,-1,-1,-1,-1,-1,-1,-1,-1,-1,-1,-1,-1,-1],"split_conditions":[5.1447526E-2,1.5056084E-1,9.897563E3,1E0,2E0,2.994742E-2,1E0,5.060982E-2,2E0,4.498584E-1,-8.663688E-1,2E0,1.2409952E-1,1.2036726E-1,2E0,1.2753531E0,4.5641704E0,2.9830458E-2,7.8807294E-2,1E0,3.4088872E-2,-4.1923795E0,-4.9702973E0,-3.6964685E-1,-8.735113E-1,1.8378645E-2,1.3261338E-1,8.1895255E-2,6.911634E-1,3.1023798E0,5.478532E-1,1.496813E0,-8.6629003E-1,6.3129544E-2,5.7266188E4,1.2770997E-1,8.920014E-2,4.4960656E4,2.237371E-1,1.028399E-1,2.542813E-1,3.7068594E-2,1E0,-1.0115179E0,-1.8121468E0,7.214238E-1,2.9535323E-1,-4.7504663E-2,4.7094798E-1,-5.4067165E-1,1.6035318E-1,3.228531E-1,-1.7714691E-1,6.3030547E-1,2.7648866E-1,-2.921469E-1,-7.714691E-2,-4.7092938E-1,-6.4630926E-2,-6.065916E-1,-1.6179056E-1],"split_indices":[15,8,10,6,6,11,6,11,6,7,0,6,9,15,6,0,0,14,9,6,15,0,0,0,0,14,15,15,7,0,0,0,0,14,10,0,14,10,9,9,0,14,0,0,0,0,0,0,0,0,0,0,0,0,0,0,0,0,0,0,0],"split_type":[0,0,0,0,0,0,0,0,0,0,0,0,0,0,0,0,0,0,0,0,0,0,0,0,0,0,0,0,0,0,0,0,0,0,0,0,0,0,0,0,0,0,0,0,0,0,0,0,0,0,0,0,0,0,0,0,0,0,0,0,0],"sum_hessian":[1.275E3,5.73E2,7.02E2,5.07E2,6.6E1,3.92E2,3.1E2,3.65E2,1.42E2,4.5E1,2.1E1,3.79E2,1.3E1,4.9E1,2.61E2,3E0,3.62E2,1.17E2,2.5E1,2.4E1,2.1E1,6.7E1,3.12E2,3E0,1E1,3.8E1,1.1E1,1.23E2,1.38E2,1.14E2,3E0,2.1E1,4E0,1.2E1,1.2E1,4E0,1.7E1,6E0,3.2E1,6E0,5E0,3.6E1,8.7E1,1.35E2,3E0,9E0,3E0,7E0,5E0,1.4E1,3E0,3E0,3E0,2.2E1,1E1,3E0,3E0,1.6E1,2E1,7.6E1,1.1E1],"tree_param":{"num_deleted":"0","num_feature":"16","num_nodes":"61","size_leaf_vector":"1"}},{"base_weights":[1.0532507E-1,3.2679302E1,-2.6717682E1,3.660061E1,-1.8370875E0,-4.2381756E1,-5.040668E0,3.832039E1,2.2230413E1,1.8706642E0,-5.246369E0,-5.203131E0,-4.381304E1,-2.974524E0,-8.268978E0,3.9670994E1,2.409489E1,2.3420433E1,6.0754586E-2,3.0821552E0,-6.471693E-1,-6.127709E0,-1.3492442E0,-2.8270436E-2,-6.316868E0,-1.5368104E0,-4.3995724E0,-5.2798975E-1,-5.797889E0,-3.2140628E-1,-8.377621E0,4.0389484E1,2.631265E1,2.5974318E1,4.992269E-1,2.4635317E1,9.595467E-1,4.6828113E0,-4.616182E-1,-2.8766682E0,-7.4883944E-1,-2.9531175E-1,5.9193995E-2,-3.273358E-1,-7.3058325E-1,1.1796142E0,-6.764062E0,-4.8948016E0,-9.016065E-1,-6.160748E0,-8.611215E-1,1.1797017E0,4.0580153E0,2.8322854E0,9.1809195E-1,2.695144E0,1.093092E0,2.6474903E0,1.3517731E0,5.459685E-1,5.9883308E-2,2.2701295E-1,-3.1010422E-1,2.8707504E-2,-6.903116E-1,2.546852E-1,-4.1921583E-1,-7.6282084E-1,-2.4731521E-1,-1.1455252E-1,-5.954294E-1,-2.9271606E-1,-8.220043E-1],"categories":[],"categories_nodes":[],"categories_segments":[],"categories_sizes":[],"default_left":[0,0,0,0,0,0,0,0,0,0,0,0,0,0,0,0,0,0,0,0,0,0,0,0,0,0,0,0,0,0,0,0,0,0,0,0,0,0,0,0,0,0,0,0,0,0,0,0,0,0,0,0,0,0,0,0,0,0,0,0,0,0,0,0,0,0,0,0,0,0,0,0,0],"id":1,"left_children":[1,3,5,7,9,11,13,15,17,19,21,23,25,27,29,31,33,35,-1,37,-1,39,41,-1,43,-1,-1,45,47,-1,49,51,53,55,-1,57,-1,59,61,63,-1,-1,-1,-1,-1,65,67,69,-1,71,-1,-1,-1,-1,-1,-1,-1,-1,-1,-1,-1,-1,-1,-1,-1,-1,-1,-1,-1,-1,-1,-1,-1],"loss_changes":[1.1009018E6,7.7081E4,2.3441572E5,1.177675E4,7.5561957E2,2.1110562E4,1.9164185E3,7.786E3,1.4524746E3,3.1304077E2,9.82077E1,8.58952E1,1.3295625E3,1.2333741E3,3.5131348E1,2.9108125E3,1.3782109E3,6.7058203E2,0E0,1.4964307E2,0E0,8.904938E1,2.3541962E1,0E0,1.5214355E1,0E0,0E0,1.0409069E3,1.9709058E2,0E0,3.911621E0,1.6529375E3,5.664883E2,2.639668E2,0E0,6.442578E2,0E0,5.3839813E1,7.193192E1,1.16629555E2,0E0,0E0,0E0,0E0,0E0,5.762026E2,5.900171E1,2.593252E2,0E0,6.916339E1,0E0,0E0,0E0,0E0,0E0,0E0,0E0,0E0,0E0,0E0,0E0,0E0,0E0,0E0,0E0,0E0,0E0,0E0,0E0,0E0,0E0,0E0,0E0],"parents":[2147483647,0,0,1,1,2,2,3,3,4,4,5,5,6,6,7,7,8,8,9,9,10,10,11,11,12,12,13,13,14,14,15,15,16,16,17,17,19,19,21,21,22,22,24,24,27,27,28,28,30,30,31,31,32,32,33,33,35,35,37,37,38,38,39,39,45,45,46,46,47,47,49,49],"right_children":[2,4,6,8,10,12,14,16,18,20,22,24,26,28,30,32,34,36,-1,38,-1,40,42,-1,44,-1,-1,46,48,-1,50,52,54,56,-1,58,-1,60,62,64,-1,-1,-1,-1,-1,66,68,70,-1,72,-1,-1,-1,-1,-1,-1,-1,-1,-1,-1,-1,-1,-1,-1,-1,-1,-1,-1,-1,-1,-1,-1,-1],"split_conditions":[5.1447526E-2,1.5056084E-1,1.0921215E4,1E0,4.6463922E-1,2.824229E-1,1E0,1E0,3.903074E-1,1E0,3.4284073E-1,1.863263E-2,2.004136E-1,1E0,1.2347347E4,1E0,1E0,1E0,6.0754586E-2,1E0,-6.471693E-1,9.495571E-2,1.8065256E-1,-2.8270436E-2,3.9898083E-2,-1.5368104E0,-4.3995724E0,1E0,1E0,-3.2140628E-1,6.89617E-2,5.060982E-2,1E0,1E0,4.992269E-1,1E0,9.595467E-1,2.616378E-1,3.0103412E-1,2.5396684E-1,-7.4883944E-1,-2.9531175E-1,5.9193995E-2,-3.273358E-1,-7.3058325E-1,1E0,8.12742E-2,7.980381E-2,-9.016065E-1,2.4146044E-1,-8.611215E-1,1.1797017E0,4.0580153E0,2.8322854E0,9.1809195E-1,2.695144E0,1.093092E0,2.6474903E0,1.3517731E0,5.459685E-1,5.9883308E-2,2.2701295E-1,-3.1010422E-1,2.8707504E-2,-6.903116E-1,2.546852E-1,-4.1921583E-1,-7.6282084E-1,-2.4731521E-1,-1.1455252E-1,-5.954294E-1,-2.9271606E-1,-8.220043E-1],"split_indices":[15,8,10,3,7,8,3,4,7,1,8,11,9,4,10,5,1,5,0,3,0,9,9,0,11,0,0,5,5,0,15,11,1,5,0,4,0,9,8,8,0,0,0,0,0,1,11,15,0,8,0,0,0,0,0,0,0,0,0,0,0,0,0,0,0,0,0,0,0,0,0,0,0],"split_type":[0,0,0,0,0,0,0,0,0,0,0,0,0,0,0,0,0,0,0,0,0,0,0,0,0,0,0,0,0,0,0,0,0,0,0,0,0,0,0,0,0,0,0,0,0,0,0,0,0,0,0,0,0,0,0,0,0,0,0,0,0,0,0,0,0,0,0,0,0,0,0,0,0],"sum_hessian":[1.258E3,5.68E2,6.9E2,5.1E2,5.8E1,4E2,2.9E2,4.54E2,5.6E1,2.8E1,3E1,1.5E1,3.85E2,1.78E2,1.12E2,4.13E2,4.1E1,5.3E1,3E0,2.5E1,3E0,2.4E1,6E0,3E0,1.2E1,3E0,3.82E2,9.6E1,8.2E1,3E0,1.09E2,3.9E2,2.3E1,3.7E1,4E0,4.8E1,5E0,1.7E1,8E0,8E0,1.6E1,3E0,3E0,4E0,8E0,7.6E1,2E1,6.6E1,1.6E1,1.3E1,9.6E1,3E0,3.87E2,2E1,3E0,3.4E1,3E0,4E1,8E0,1.4E1,3E0,4E0,4E0,5E0,3E0,6.1E1,1.5E1,1.6E1,4E0,1.5E1,5.1E1,6E0,7E0],"tree_param":{"num_deleted":"0","num_feature":"16","num_nodes":"73","size_leaf_vector":"1"}},{"base_weights":[1.0908107E-1,2.8986258E1,-2.325989E1,3.283046E1,-2.4208825E0,-3.82028E1,-4.3959694E0,3.6995854E0,2.1440508E1,6.2152773E-1,-7.263929E0,-5.819279E0,-3.9587444E1,3.0328104E0,-6.029365E0,2.45433E1,8.005405E0,4.6550176E-1,-1.3435423E0,-4.4331393E0,-7.96124E-1,-7.0349675E-1,-3.957005E0,-1.384884E0,-3.9760106E0,5.373089E-1,6.3377583E-1,-3.4405549E0,-8.356764E0,6.81625E-1,2.4976618E0,-8.6485285E-1,1.2183506E0,-6.0633475E-1,1.3532128E0,-5.6095994E-1,-2.1483946E-1,-1.490783E-1,-5.631826E-1,2.6942587E0,-1.1938256E0,-7.0193367E0,-3.4385256E-2,-8.4700835E-1,-3.784449E-1,3.488911E-1,-1.752524E-1,1.5398917E-1,5.4837954E-1,-2.3358352E-1,6.68417E-2,-4.5888677E-1,-7.3650444E-1,9.497145E-1,-6.692475E-2],"categories":[],"categories_nodes":[],"categories_segments":[],"categories_sizes":[],"default_left":[0,0,0,0,0,0,0,0,0,0,0,0,0,0,0,0,0,0,0,0,0,0,0,0,0,0,0,0,0,0,0,0,0,0,0,0,0,0,0,0,0,0,0,0,0,0,0,0,0,0,0,0,0,0,0],"id":2,"left_children":[1,3,5,7,9,11,13,-1,15,17,19,21,23,25,27,29,31,-1,33,35,-1,-1,37,-1,-1,39,-1,41,43,-1,-1,-1,-1,-1,45,-1,-1,-1,-1,47,49,51,53,-1,-1,-1,-1,-1,-1,-1,-1,-1,-1,-1,-1],"loss_changes":[8.448865E5,6.769128E4,1.9489428E5,2.2881188E4,9.1805585E2,1.707775E4,3.7434653E3,0E0,5.4728633E3,3.1537167E2,1.2081177E1,1.0649719E1,1.0936875E3,4.5845477E2,1.4895986E3,6.7471094E2,1.984078E3,0E0,3.5186526E2,6.763748E0,0E0,0E0,2.8778488E1,0E0,0E0,1.26437485E2,0E0,1.474741E3,3.633789E1,0E0,0E0,0E0,0E0,0E0,1.25506905E2,0E0,0E0,0E0,0E0,3.985778E1,4.196859E1,1.5776855E1,3.8758206E2,0E0,0E0,0E0,0E0,0E0,0E0,0E0,0E0,0E0,0E0,0E0,0E0],"parents":[2147483647,0,0,1,1,2,2,3,3,4,4,5,5,6,6,8,8,9,9,10,10,11,11,12,12,13,13,14,14,15,15,16,16,18,18,19,19,22,22,25,25,27,27,28,28,34,34,39,39,40,40,41,41,42,42],"right_children":[2,4,6,8,10,12,14,-1,16,18,20,22,24,26,28,30,32,-1,34,36,-1,-1,38,-1,-1,40,-1,42,44,-1,-1,-1,-1,-1,46,-1,-1,-1,-1,48,50,52,54,-1,-1,-1,-1,-1,-1,-1,-1,-1,-1,-1,-1],"split_conditions":[4.9971096E-2,1.5056084E-1,1.0921215E4,1E0,2E0,2.824229E-1,1E0,3.6995854E0,2E0,1E0,4.0494943E-1,3.8279478E-2,5.0027895E-1,1E0,2E0,5.7266188E4,6.0454727E4,4.6550176E-1,1E0,1E0,-7.96124E-1,-7.0349675E-1,1.9256635E-1,-1.384884E0,-3.9760106E0,4.5916855E-1,6.3377583E-1,1E0,7.732791E4,6.81625E-1,2.4976618E0,-8.6485285E-1,1.2183506E0,-6.0633475E-1,5.101057E-1,-5.6095994E-1,-2.1483946E-1,-1.490783E-1,-5.631826E-1,6.5605946E-2,3.2334533E-1,2.437972E4,3.1403443E-1,-8.4700835E-1,-3.784449E-1,3.488911E-1,-1.752524E-1,1.5398917E-1,5.4837954E-1,-2.3358352E-1,6.68417E-2,-4.5888677E-1,-7.3650444E-1,9.497145E-1,-6.692475E-2],"split_indices":[15,8,10,6,6,8,6,0,6,6,7,14,7,12,6,10,10,0,12,3,0,0,8,0,0,7,0,12,10,0,0,0,0,0,7,0,0,0,0,14,8,10,7,0,0,0,0,0,0,0,0,0,0,0,0],"split_type":[0,0,0,0,0,0,0,0,0,0,0,0,0,0,0,0,0,0,0,0,0,0,0,0,0,0,0,0,0,0,0,0,0,0,0,0,0,0,0,0,0,0,0,0,0,0,0,0,0,0,0,0,0,0,0],"sum_hessian":[1.25E3,5.59E2,6.91E2,4.98E2,6.1E1,3.85E2,3.06E2,3.63E2,1.35E2,3.8E1,2.3E1,1.6E1,3.69E2,5.5E1,2.51E2,1.09E2,2.6E1,1.2E1,2.6E1,6E0,1.7E1,8E0,8E0,3E0,3.66E2,3.2E1,2.3E1,1.2E2,1.31E2,3E0,1.06E2,5E0,2.1E1,9E0,1.7E1,3E0,3E0,4E0,4E0,1.4E1,1.8E1,5.8E1,6.2E1,1.27E2,4E0,1E1,7E0,1.1E1,3E0,1.1E1,7E0,9E0,4.9E1,3E0,5.9E1],"tree_param":{"num_deleted":"0","num_feature":"16","num_nodes":"55","size_leaf_vector":"1"}},{"base_weights":[7.1158254E-1,2.6615852E1,-2.1649324E1,2.9601093E1,-1.9752029E0,-3.457626E1,-4.3546314E0,3.3206173E1,1.9810703E1,5.705041E-1,-6.713286E0,-7.168141E0,-3.5420692E1,2.544491E0,-5.8414583E0,8.1375504E-1,3.3379028E0,2.1086098E1,-4.985026E0,3.0687413E0,-2.0892456E0,-7.0877737E-1,-3.4433928E-1,-3.8520703E0,-1.3666282E0,-1.087221E0,-3.558676E1,4.0342436E0,-1.1531277E-1,-3.515153E0,-7.7710395E0,2.2731216E0,1.1229038E0,-6.977387E-2,-7.4178505E-1,1.7844328E0,5.198967E-1,2.5406733E-1,-3.1161475E0,-4.7749645E-1,-1.2739877E-1,-3.0453465E1,-3.6516743E0,6.653567E-2,4.338802E0,3.3016891E0,-1.8155771E0,-2.8695285E0,-6.02591E-1,-7.510995E0,-1.4214714E0,4.9318907E-1,4.776816E-2,-4.019222E-1,5.9788037E-2,-2.071564E0,-3.6999562E0,4.9202594E-1,2.3707648E-1,4.2144558E-1,1.5635005E-1,-3.31419E-1,7.349383E-2,-2.2895765E-1,-5.8957237E-1,-7.6120794E-1,-3.4816933E-1],"categories":[],"categories_nodes":[],"categories_segments":[],"categories_sizes":[],"default_left":[0,0,0,0,0,0,0,0,0,0,0,0,0,0,0,0,0,0,0,0,0,0,0,0,0,0,0,0,0,0,0,0,0,0,0,0,0,0,0,0,0,0,0,0,0,0,0,0,0,0,0,0,0,0,0,0,0,0,0,0,0,0,0,0,0,0,0],"id":3,"left_children":[1,3,5,7,9,11,13,15,17,19,21,23,25,27,29,-1,-1,31,33,35,37,-1,-1,39,-1,-1,41,43,45,47,49,-1,-1,-1,-1,51,-1,-1,53,-1,-1,55,-1,-1,57,59,61,63,-1,65,-1,-1,-1,-1,-1,-1,-1,-1,-1,-1,-1,-1,-1,-1,-1,-1,-1],"loss_changes":[7.41428E5,5.067172E4,1.5344019E5,1.8295656E4,6.913509E2,8.841844E3,3.0409146E3,1.4226875E3,4.7538945E3,2.5890942E2,8.47168E-2,2.2748438E2,1.1662812E3,2.1047495E2,1.0634609E3,0E0,0E0,2.0149922E3,7.826602E1,4.544011E1,9.82521E1,0E0,0E0,1.7709732E1,0E0,0E0,6.925E2,3.1997986E1,1.22190605E2,1.6426123E2,1.1441846E2,0E0,0E0,0E0,0E0,5.522535E1,0E0,0E0,5.6067673E1,0E0,0E0,3.3131992E3,0E0,0E0,2.3809448E1,4.5166245E0,5.5947025E1,1.462107E2,0E0,2.6038086E1,0E0,0E0,0E0,0E0,0E0,0E0,0E0,0E0,0E0,0E0,0E0,0E0,0E0,0E0,0E0,0E0,0E0],"parents":[2147483647,0,0,1,1,2,2,3,3,4,4,5,5,6,6,7,7,8,8,9,9,10,10,11,11,12,12,13,13,14,14,17,17,18,18,19,19,20,20,23,23,26,26,27,27,28,28,29,29,30,30,35,35,38,38,41,41,44,44,45,45,46,46,47,47,49,49],"right_children":[2,4,6,8,10,12,14,16,18,20,22,24,26,28,30,-1,-1,32,34,36,38,-1,-1,40,-1,-1,42,44,46,48,50,-1,-1,-1,-1,52,-1,-1,54,-1,-1,56,-1,-1,58,60,62,64,-1,66,-1,-1,-1,-1,-1,-1,-1,-1,-1,-1,-1,-1,-1,-1,-1,-1,-1],"split_conditions":[5.1447526E-2,1.5056084E-1,9.897563E3,1E0,2E0,2.03851E-1,1E0,5.060982E-2,3.999221E-1,4.498584E-1,8.5729554E-2,3E0,5.8114577E-2,5.252559E-1,2E0,8.1375504E-1,3.3379028E0,2E0,2E0,3.163267E-1,1E0,-7.0877737E-1,-3.4433928E-1,7.443517E-2,-1.3666282E0,-1.087221E0,2E0,1.5234758E-1,3.784585E-2,6.190299E-1,3.972037E-1,2.2731216E0,1.1229038E0,-6.977387E-2,-7.4178505E-1,5.4712404E-2,5.198967E-1,2.5406733E-1,8.920014E-2,-4.7749645E-1,-1.2739877E-1,1E0,-3.6516743E0,6.653567E-2,7.147723E-2,2.1605316E-1,1.9800201E-1,7.270863E4,-6.02591E-1,7.732791E4,-1.4214714E0,4.9318907E-1,4.776816E-2,-4.019222E-1,5.9788037E-2,-2.071564E0,-3.6999562E0,4.9202594E-1,2.3707648E-1,4.2144558E-1,1.5635005E-1,-3.31419E-1,7.349383E-2,-2.2895765E-1,-5.8957237E-1,-7.6120794E-1,-3.4816933E-1],"split_indices":[15,8,10,6,6,9,6,11,7,7,11,6,14,7,6,0,0,6,6,8,6,0,0,11,0,0,6,8,11,7,8,0,0,0,0,11,0,0,14,0,0,13,0,0,11,9,9,10,0,10,0,0,0,0,0,0,0,0,0,0,0,0,0,0,0,0,0],"split_type":[0,0,0,0,0,0,0,0,0,0,0,0,0,0,0,0,0,0,0,0,0,0,0,0,0,0,0,0,0,0,0,0,0,0,0,0,0,0,0,0,0,0,0,0,0,0,0,0,0,0,0,0,0,0,0,0,0,0,0,0,0,0,0,0,0,0,0],"sum_hessian":[1.278E3,5.92E2,6.86E2,5.36E2,5.6E1,3.92E2,2.94E2,3.9E2,1.46E2,3.7E1,1.9E1,1.2E1,3.8E2,5.2E1,2.42E2,3E0,3.87E2,1.39E2,7E0,1.9E1,1.8E1,1.6E1,3E0,9E0,3E0,3E0,3.77E2,3.3E1,1.9E1,1.11E2,1.31E2,1.18E2,2.1E1,3E0,4E0,1.3E1,6E0,3E0,1.5E1,6E0,3E0,6.3E1,3.14E2,3E0,3E1,6E0,1.3E1,9E1,2.1E1,1.28E2,3E0,3E0,1E1,1.2E1,3E0,2.7E1,3.6E1,2.2E1,8E0,3E0,3E0,8E0,5E0,7.7E1,1.3E1,1.24E2,4E0],"tree_param":{"num_deleted":"0","num_feature":"16","num_nodes":"67","size_leaf_vector":"1"}},{"base_weights":[-6.709262E-1,2.3415918E1,-1.9830742E1,2.6304024E1,-1.7501339E0,-3.1001656E1,-3.7715886E0,-7.090009E-1,2.692301E1,-1.04896635E-1,-6.165153E0,-3.8413613E0,-3.1933346E1,-5.4872193E0,-1.8953655E0,2.8172297E1,1.65818E1,1.969884E0,-3.8588805E0,-6.6799146E-1,-2.9508898E-1,6.029911E-2,-5.0026984E0,-2.912311E1,-3.385051E0,-4.494644E0,-7.018382E-1,5.6151625E-2,-4.7722707E0,2.8948685E1,1.8891582E1,1.7399527E1,6.867494E-1,3.5090327E0,-1.8403388E0,-1.6857613E0,-5.82128E-1,-6.02019E-1,-2.9818428E-1,-5.749718E-1,-2.9506268E1,-3.1074345E0,-6.24591E0,1.6927766E0,-3.9394593E0,-3.8746653E0,-6.501823E-1,2.963624E0,1.8199824E0,1.9615551E0,8.014954E-1,1.8654865E0,8.3202213E-1,4.161213E-1,-3.030367E-2,7.308598E-2,-3.2477483E-1,1.9190503E-2,-2.6565787E-1,-2.4368856E0,-3.0921328E0,-1.6047874E-1,-5.6568277E-1,-6.527188E-1,-2.012292E-1,3.646758E-1,-9.028575E-2,-1.3101804E-1,-6.2657034E-1,-2.8055307E-1,-5.659806E-1],"categories":[],"categories_nodes":[],"categories_segments":[],"categories_sizes":[],"default_left":[0,0,0,0,0,0,0,0,0,0,0,0,0,0,0,0,0,0,0,0,0,0,0,0,0,0,0,0,0,0,0,0,0,0,0,0,0,0,0,0,0,0,0,0,0,0,0,0,0,0,0,0,0,0,0,0,0,0,0,0,0,0,0,0,0,0,0,0,0,0,0],"id":4,"left_children":[1,3,5,7,9,11,13,-1,15,17,19,21,23,25,27,29,31,33,35,-1,-1,-1,37,39,-1,41,-1,43,45,47,49,51,-1,53,55,57,-1,-1,-1,-1,59,61,63,65,67,69,-1,-1,-1,-1,-1,-1,-1,-1,-1,-1,-1,-1,-1,-1,-1,-1,-1,-1,-1,-1,-1,-1,-1,-1,-1],"loss_changes":[5.8749175E5,4.103878E4,1.2707441E5,1.0650125E4,4.279148E2,1.04548125E4,9.2952E2,0E0,5.9536562E3,3.5030408E2,6.7615356E0,8.0437485E1,1.1907812E3,1.9946338E2,7.918884E2,2.6379062E3,3.2535254E2,1.765283E2,5.841913E1,0E0,0E0,0E0,6.723175E0,1.3617656E3,0E0,2.1138171E2,0E0,5.6251056E2,6.3297485E1,2.4611875E3,1.3413281E2,4.2606445E2,0E0,5.3470306E1,3.4942207E1,1.6915651E1,0E0,0E0,0E0,0E0,4.678125E2,2.016181E2,3.568921E1,3.1267352E2,1.446994E2,6.04635E1,0E0,0E0,0E0,0E0,0E0,0E0,0E0,0E0,0E0,0E0,0E0,0E0,0E0,0E0,0E0,0E0,0E0,0E0,0E0,0E0,0E0,0E0,0E0,0E0,0E0],"parents":[2147483647,0,0,1,1,2,2,3,3,4,4,5,5,6,6,8,8,9,9,10,10,11,11,12,12,13,13,14,14,15,15,16,16,17,17,18,18,22,22,23,23,25,25,27,27,28,28,29,29,30,30,31,31,33,33,34,34,35,35,40,40,41,41,42,42,43,43,44,44,45,45],"right_children":[2,4,6,8,10,12,14,-1,16,18,20,22,24,26,28,30,32,34,36,-1,-1,-1,38,40,-1,42,-1,44,46,48,50,52,-1,54,56,58,-1,-1,-1,-1,60,62,64,66,68,70,-1,-1,-1,-1,-1,-1,-1,-1,-1,-1,-1,-1,-1,-1,-1,-1,-1,-1,-1,-1,-1,-1,-1,-1,-1],"split_conditions":[5.1447526E-2,1.5056084E-1,1.0921215E4,1E0,1E0,2.824229E-1,1E0,-7.090009E-1,1E0,1E0,3.5788482E-1,1.863263E-2,1E0,1E0,1E0,1E0,1E0,1E0,4.6463922E-1,-6.6799146E-1,-2.9508898E-1,6.029911E-2,1.2036726E-1,2.03851E-1,-3.385051E0,1E0,-7.018382E-1,1E0,1E0,1E0,3.9766493E-1,1E0,6.867494E-1,5.8032835E-1,4.0494943E-1,3.0103412E-1,-5.82128E-1,-6.02019E-1,-2.9818428E-1,-5.749718E-1,3.0890977E-1,1E0,9.073931E-2,1E0,1E0,1E0,-6.501823E-1,2.963624E0,1.8199824E0,1.9615551E0,8.014954E-1,1.8654865E0,8.3202213E-1,4.161213E-1,-3.030367E-2,7.308598E-2,-3.2477483E-1,1.9190503E-2,-2.6565787E-1,-2.4368856E0,-3.0921328E0,-1.6047874E-1,-5.6568277E-1,-6.527188E-1,-2.012292E-1,3.646758E-1,-9.028575E-2,-1.3101804E-1,-6.2657034E-1,-2.8055307E-1,-5.659806E-1],"split_indices":[15,8,10,12,1,8,12,0,3,3,8,11,13,3,3,4,1,4,7,0,0,0,15,9,0,4,0,1,1,1,7,4,0,7,7,8,0,0,0,0,15,1,11,4,4,4,0,0,0,0,0,0,0,0,0,0,0,0,0,0,0,0,0,0,0,0,0,0,0,0,0],"split_type":[0,0,0,0,0,0,0,0,0,0,0,0,0,0,0,0,0,0,0,0,0,0,0,0,0,0,0,0,0,0,0,0,0,0,0,0,0,0,0,0,0,0,0,0,0,0,0,0,0,0,0,0,0,0,0,0,0,0,0,0,0,0,0,0,0,0,0,0,0,0,0],"sum_hessian":[1.271E3,5.63E2,7.08E2,5.05E2,5.8E1,4.17E2,2.91E2,9E0,4.96E2,4.3E1,1.5E1,1.4E1,4.03E2,1.51E2,1.4E2,4.41E2,5.5E1,2.8E1,1.5E1,1.2E1,3E0,3E0,1.1E1,1.7E2,2.33E2,9.4E1,5.7E1,8.4E1,5.6E1,4.05E2,3.6E1,5E1,5E0,2E1,8E0,8E0,7E0,6E0,5E0,3E0,1.67E2,5.4E1,4E1,6E1,2.4E1,3.9E1,1.7E1,3.79E2,2.6E1,3.3E1,3E0,4.3E1,7E0,1.7E1,3E0,3E0,5E0,3E0,5E0,4E1,1.27E2,3.5E1,1.9E1,3.7E1,3E0,3.4E1,2.6E1,1.2E1,1.2E1,2.6E1,1.3E1],"tree_param":{"num_deleted":"0","num_feature":"16","num_nodes":"71","size_leaf_vector":"1"}},{"base_weights":[-4.1782963E-1,2.1018152E1,-1.7703367E1,2.3581055E1,-2.8663504E0,-2.7852005E1,-3.3064516E0,2.6944454E0,1.5194438E1,-8.067234E-1,-5.6647243E0,-3.0650973E0,-2.8697096E1,2.485412E0,-4.540851E0,1.675897E1,-6.383578E-1,-2.7051578E0,1.4980876E0,-4.0283327E0,-6.378004E-1,2.9649696E-1,-4.819695E0,-2.9084955E1,-2.3787112E0,5.383077E-1,4.8157334E0,-2.5339963E0,-6.1454105E0,1.818478E0,8.155248E0,-4.252307E0,2.4773216E-1,4.6768066E-1,4.047828E-1,-1.7963658E-1,-4.7282663E-1,-2.1722117E-1,-5.460833E-1,-2.48067E1,-2.9808989E0,-3.2257587E-1,-9.36986E-2,2.011249E0,-1.0687169E0,5.1170224E-1,2.0300351E-1,-4.9007516E0,-3.5104576E-2,-6.236635E-1,-1.5758438E-1,4.1100723E-1,8.5776407E-1,-5.209346E-1,-1.9485246E-1,1.3925941E-1,-2.1659413E-1,-1.6167761E0,-3.0292087E0,2.7507898E-1,-8.9507006E-2,9.431877E-2,-2.9470322E-1,-2.521698E-1,-5.4791284E-1,1.4323524E-1,-1.2174051E-1],"categories":[],"categories_nodes":[],"categories_segments":[],"categories_sizes":[],"default_left":[0,0,0,0,0,0,0,0,0,0,0,0,0,0,0,0,0,0,0,0,0,0,0,0,0,0,0,0,0,0,0,0,0,0,0,0,0,0,0,0,0,0,0,0,0,0,0,0,0,0,0,0,0,0,0,0,0,0,0,0,0,0,0,0,0,0,0],"id":5,"left_children":[1,3,5,7,9,11,13,-1,15,17,19,21,23,25,27,29,-1,31,33,35,-1,-1,37,39,41,43,45,47,49,-1,51,53,-1,-1,55,-1,-1,-1,-1,57,-1,-1,-1,59,61,-1,-1,63,65,-1,-1,-1,-1,-1,-1,-1,-1,-1,-1,-1,-1,-1,-1,-1,-1,-1,-1],"loss_changes":[4.8058212E5,3.5510297E4,1.0481422E5,1.4343125E4,3.2395575E2,8.7308125E3,2.141829E3,0E0,5.238426E3,1.5282068E2,2.3201904E0,1.7299538E2,4.0854062E3,2.3788873E2,7.765762E2,1.5936484E3,0E0,1.6287766E2,5.3711845E1,7.128586E0,0E0,0E0,8.506714E0,5.026875E2,5.525978E0,7.316105E1,9.755432E0,6.5631134E2,4.6864746E1,0E0,2.3355713E0,2.29216E1,0E0,0E0,3.602835E1,0E0,0E0,0E0,0E0,2.5430742E3,0E0,0E0,0E0,3.6851616E1,5.9464462E1,0E0,0E0,6.4614746E1,9.716737E1,0E0,0E0,0E0,0E0,0E0,0E0,0E0,0E0,0E0,0E0,0E0,0E0,0E0,0E0,0E0,0E0,0E0,0E0],"parents":[2147483647,0,0,1,1,2,2,3,3,4,4,5,5,6,6,8,8,9,9,10,10,11,11,12,12,13,13,14,14,15,15,17,17,18,18,19,19,22,22,23,23,24,24,25,25,26,26,27,27,28,28,30,30,31,31,34,34,39,39,43,43,44,44,47,47,48,48],"right_children":[2,4,6,8,10,12,14,-1,16,18,20,22,24,26,28,30,-1,32,34,36,-1,-1,38,40,42,44,46,48,50,-1,52,54,-1,-1,56,-1,-1,-1,-1,58,-1,-1,-1,60,62,-1,-1,64,66,-1,-1,-1,-1,-1,-1,-1,-1,-1,-1,-1,-1,-1,-1,-1,-1,-1,-1],"split_conditions":[1.5056084E-1,3.0047333E-2,1.0921215E4,1E0,2E0,2.848934E-1,1E0,2.6944454E0,3.999221E-1,1E0,4.5873664E-2,1.863263E-2,2.994742E-2,1E0,2E0,2E0,-6.383578E-1,8.0814295E-2,1E0,5.250176E4,-6.378004E-1,2.9649696E-1,3.8533992E-1,2E0,4.80076E-1,4.5916855E-1,5.6115055E-1,1E0,7.732791E4,1.818478E0,2.0767165E-2,5.9820466E-2,2.4773216E-1,4.6768066E-1,6.122018E-1,-1.7963658E-1,-4.7282663E-1,-2.1722117E-1,-5.460833E-1,1E0,-2.9808989E0,-3.2257587E-1,-9.36986E-2,8.399235E-2,3.863498E-2,5.1170224E-1,2.0300351E-1,3.9597732E-1,5.195164E-1,-6.236635E-1,-1.5758438E-1,4.1100723E-1,8.5776407E-1,-5.209346E-1,-1.9485246E-1,1.3925941E-1,-2.1659413E-1,-1.6167761E0,-3.0292087E0,2.7507898E-1,-8.9507006E-2,9.431877E-2,-2.9470322E-1,-2.521698E-1,-5.4791284E-1,1.4323524E-1,-1.2174051E-1],"split_indices":[8,14,10,6,6,8,6,0,7,12,11,11,11,12,6,6,0,14,6,10,0,0,7,6,7,7,7,12,10,0,8,11,0,0,7,0,0,0,0,13,0,0,0,11,11,0,0,7,7,0,0,0,0,0,0,0,0,0,0,0,0,0,0,0,0,0,0],"split_type":[0,0,0,0,0,0,0,0,0,0,0,0,0,0,0,0,0,0,0,0,0,0,0,0,0,0,0,0,0,0,0,0,0,0,0,0,0,0,0,0,0,0,0,0,0,0,0,0,0,0,0,0,0,0,0,0,0,0,0,0,0,0,0,0,0,0,0],"sum_hessian":[1.295E3,5.78E2,7.17E2,5.22E2,5.6E1,4.2E2,2.97E2,3.71E2,1.51E2,3.3E1,2.3E1,1.4E1,4.06E2,5.2E1,2.45E2,1.41E2,1E1,1.8E1,1.5E1,9E0,1.4E1,3E0,1.1E1,4E2,6E0,2.9E1,2.3E1,1.1E2,1.35E2,1.2E2,2.1E1,1.4E1,4E0,3E0,1.2E1,3E0,6E0,3E0,8E0,6.3E1,3.37E2,3E0,3E0,1.5E1,1.4E1,2E1,3E0,5.6E1,5.4E1,1.32E2,3E0,3E0,1.8E1,9E0,5E0,9E0,3E0,2.6E1,3.7E1,1.2E1,3E0,7E0,7E0,1.2E1,4.4E1,2.4E1,3E1],"tree_param":{"num_deleted":"0","num_feature":"16","num_nodes":"67","size_leaf_vector":"1"}},{"base_weights":[-3.7486598E-1,1.9330742E1,-1.5600154E1,2.155783E1,-1.2669997E0,-4.303537E0,-2.6065287E1,2.4316597E1,1.407062E1,1.1793529E0,-4.9901357E0,-3.1176965E0,-2.4548385E0,-2.146564E1,-2.6863735E0,1.1907866E0,2.438673E0,1.4913743E1,-3.7179363E0,3.922075E-1,-4.949535E-1,-1.1637726E-1,-5.533047E-1,2.2556694E0,-4.353768E0,-1.3089693E1,-2.2687087E0,1.6363944E0,8.110335E0,-9.853353E-2,-5.5210537E-1,-3.2263103E0,1.2962725E0,4.3618023E-1,4.3110814E0,-2.5840933E0,-6.03938E0,-7.2195464E-1,-1.5799867E0,9.7171926E-1,5.5598074E-1,-4.9301195E-1,-8.7723926E-2,2.7723333E-1,-5.7583567E-2,-1.2556015E-1,2.0097418E-1,1.9794904E-1,4.5039773E-1,-4.8637983E-1,-8.590991E-3,-5.7212603E-1,-1.5107025E0],"categories":[],"categories_nodes":[],"categories_segments":[],"categories_sizes":[],"default_left":[0,0,0,0,0,0,0,0,0,0,0,0,0,0,0,0,0,0,0,0,0,0,0,0,0,0,0,0,0,0,0,0,0,0,0,0,0,0,0,0,0,0,0,0,0,0,0,0,0,0,0,0,0],"id":6,"left_children":[1,3,5,7,9,11,13,15,17,19,21,23,-1,25,-1,-1,-1,27,29,-1,31,-1,-1,33,35,37,-1,-1,39,-1,-1,41,43,45,47,49,51,-1,-1,-1,-1,-1,-1,-1,-1,-1,-1,-1,-1,-1,-1,-1,-1],"loss_changes":[3.8133147E5,2.5440969E4,8.4651984E4,9.985578E3,5.068308E2,8.229941E3,7.895625E2,2.6390625E1,2.11017E3,1.5807462E2,3.926306E1,2.1883508E3,0E0,3.1688086E2,0E0,0E0,0E0,1.1597676E3,2.9050308E1,0E0,1.1181668E2,0E0,0E0,2.2998721E2,7.808511E2,4.5023315E1,0E0,0E0,4.8432617E1,0E0,0E0,3.1696419E1,4.028324E1,9.3035614E1,4.1272583E0,7.5133813E2,3.0587402E2,0E0,0E0,0E0,0E0,0E0,0E0,0E0,0E0,0E0,0E0,0E0,0E0,0E0,0E0,0E0,0E0],"parents":[2147483647,0,0,1,1,2,2,3,3,4,4,5,5,6,6,7,7,8,8,9,9,10,10,11,11,13,13,17,17,18,18,20,20,23,23,24,24,25,25,28,28,31,31,32,32,33,33,34,34,35,35,36,36],"right_children":[2,4,6,8,10,12,14,16,18,20,22,24,-1,26,-1,-1,-1,28,30,-1,32,-1,-1,34,36,38,-1,-1,40,-1,-1,42,44,46,48,50,52,-1,-1,-1,-1,-1,-1,-1,-1,-1,-1,-1,-1,-1,-1,-1,-1],"split_conditions":[4.9971096E-2,1.5056084E-1,1.5009362E-1,1E0,2E0,1.03172675E-1,2E0,5.100079E-2,3.999221E-1,1E0,2.5903013E-2,1E0,-2.4548385E0,2.5624856E-1,-2.6863735E0,1.1907866E0,2.438673E0,2E0,2E0,3.922075E-1,1E0,-1.1637726E-1,-5.533047E-1,1E0,2E0,6.4388627E-1,-2.2687087E0,1.6363944E0,2.6632497E-1,-9.853353E-2,-5.5210537E-1,4.8636634E-2,5.101057E-1,4.4976894E-2,3.4048244E-1,1E0,3.993366E-1,-7.2195464E-1,-1.5799867E0,9.7171926E-1,5.5598074E-1,-4.9301195E-1,-8.7723926E-2,2.7723333E-1,-5.7583567E-2,-1.2556015E-1,2.0097418E-1,1.9794904E-1,4.5039773E-1,-4.8637983E-1,-8.590991E-3,-5.7212603E-1,-1.5107025E0],"split_indices":[15,8,15,6,6,14,6,11,7,6,14,6,0,15,0,0,0,6,6,0,12,0,0,12,6,7,0,0,7,0,0,14,7,14,7,12,8,0,0,0,0,0,0,0,0,0,0,0,0,0,0,0,0],"split_type":[0,0,0,0,0,0,0,0,0,0,0,0,0,0,0,0,0,0,0,0,0,0,0,0,0,0,0,0,0,0,0,0,0,0,0,0,0,0,0,0,0,0,0,0,0,0,0,0,0,0,0,0,0],"sum_hessian":[1.269E3,5.53E2,7.16E2,4.99E2,5.4E1,3.45E2,3.71E2,3.63E2,1.36E2,3.3E1,2.1E1,3.27E2,1.8E1,5.9E1,3.12E2,3E0,3.6E2,1.3E2,6E0,1.2E1,2.1E1,3E0,1.8E1,6.1E1,2.66E2,9E0,5E1,1.06E2,2.4E1,3E0,3E0,8E0,1.3E1,3.3E1,2.8E1,1.31E2,1.35E2,4E0,5E0,1.3E1,1.1E1,4E0,4E0,7E0,6E0,1.6E1,1.7E1,3E0,2.5E1,6.8E1,6.3E1,1.32E2,3E0],"tree_param":{"num_deleted":"0","num_feature":"16","num_nodes":"53","size_leaf_vector":"1"}},{"base_weights":[-1.5235311E-1,1.6957943E1,-1.4087577E1,1.9307484E1,-1.1446517E0,-2.259002E1,-2.7044938E0,-5.9954953E-1,1.977493E1,4.3429356E-2,-4.6415625E0,-2.3873878E0,-2.330912E1,-1.5815364E0,-4.526532E0,2.0558708E1,1.2920772E1,1.4817967E0,-1.7720526E0,-5.3662056E-1,-2.8397572E0,-1.1601524E0,-3.6242065E0,-4.539209E-1,-2.3541095E0,-8.492841E-2,-3.4512854E0,-5.274152E-1,-3.4849277E0,2.1185843E1,1.364797E0,1.3413354E0,6.7445546E-1,2.3091116E0,-9.785433E-1,-3.4156992E0,1.1642532E0,-1.095727E-1,-3.873848E-1,6.11911E-2,-2.7001855E-1,-4.5158148E-1,-1.8265466E-1,-1.6113617E0,1.9411012E0,-4.5921865E0,-2.0814896E0,3.4266472E-2,-3.731291E0,2.1688259E0,1.2621281E0,2.990292E-1,-6.0495984E-2,-2.3684798E-1,3.2911453E-2,-5.4036075E-1,-1.00082874E-1,2.543769E-1,5.053393E-3,-6.227785E-2,-4.1334137E-1,2.6613015E-1,-1.812512E-1,-4.938286E-1,1.8990517E-2,-1.2243874E-1,-3.9793625E-1,-4.1926637E-1,-1.997785E-1],"categories":[],"categories_nodes":[],"categories_segments":[],"categories_sizes":[],"default_left":[0,0,0,0,0,0,0,0,0,0,0,0,0,0,0,0,0,0,0,0,0,0,0,0,0,0,0,0,0,0,0,0,0,0,0,0,0,0,0,0,0,0,0,0,0,0,0,0,0,0,0,0,0,0,0,0,0,0,0,0,0,0,0,0,0,0,0,0,0],"id":7,"left_children":[1,3,5,7,9,11,13,-1,15,17,19,21,23,25,27,29,31,33,35,-1,37,39,41,-1,-1,43,45,-1,47,49,-1,-1,-1,51,53,55,57,-1,-1,-1,-1,-1,-1,59,61,63,65,-1,67,-1,-1,-1,-1,-1,-1,-1,-1,-1,-1,-1,-1,-1,-1,-1,-1,-1,-1,-1,-1],"loss_changes":[3.0543672E5,2.4478438E4,6.826842E4,6.138875E3,2.7856067E2,5.813547E3,6.1280054E2,0E0,2.4204531E3,1.3580367E2,6.957611E0,1.8563385E1,1.5912656E3,5.285821E2,7.117334E1,1.6481406E3,7.381738E1,6.1288357E1,1.14980484E2,0E0,8.379719E0,2.62136E1,2.971321E0,0E0,0E0,3.3094333E2,1.21716675E2,0E0,4.9370422E1,1.481875E3,0E0,0E0,0E0,4.547917E1,1.5319992E1,6.6600006E1,1.3698993E1,0E0,0E0,0E0,0E0,0E0,0E0,1.4951457E2,1.2917786E2,7.541638E1,6.019455E1,0E0,3.0013977E1,0E0,0E0,0E0,0E0,0E0,0E0,0E0,0E0,0E0,0E0,0E0,0E0,0E0,0E0,0E0,0E0,0E0,0E0,0E0,0E0],"parents":[2147483647,0,0,1,1,2,2,3,3,4,4,5,5,6,6,8,8,9,9,10,10,11,11,12,12,13,13,14,14,15,15,16,16,17,17,18,18,20,20,21,21,22,22,25,25,26,26,28,28,29,29,33,33,34,34,35,35,36,36,43,43,44,44,45,45,46,46,48,48],"right_children":[2,4,6,8,10,12,14,-1,16,18,20,22,24,26,28,30,32,34,36,-1,38,40,42,-1,-1,44,46,-1,48,50,-1,-1,-1,52,54,56,58,-1,-1,-1,-1,-1,-1,60,62,64,66,-1,68,-1,-1,-1,-1,-1,-1,-1,-1,-1,-1,-1,-1,-1,-1,-1,-1,-1,-1,-1,-1],"split_conditions":[5.1447526E-2,1.5056084E-1,1.0921215E4,1E0,1E0,1.9482154E-1,1E0,-5.9954953E-1,1E0,1E0,4.136273E-2,1.2409952E-1,2.824229E-1,1E0,1E0,1E0,1E0,1E0,7.833963E-2,-5.3662056E-1,7.530691E-2,1E0,1.4861068E-1,-4.539209E-1,-2.3541095E0,1E0,1E0,-5.274152E-1,5.597656E-2,1E0,1.364797E0,1.3413354E0,6.7445546E-1,4.5599382E-2,5.82648E-2,1.9482154E-1,2.5753364E-1,-1.095727E-1,-3.873848E-1,6.11911E-2,-2.7001855E-1,-4.5158148E-1,-1.8265466E-1,1E0,1E0,9.073931E-2,1E0,3.4266472E-2,2.4542488E-1,2.1688259E0,1.2621281E0,2.990292E-1,-6.0495984E-2,-2.3684798E-1,3.2911453E-2,-5.4036075E-1,-1.00082874E-1,2.543769E-1,5.053393E-3,-6.227785E-2,-4.1334137E-1,2.6613015E-1,-1.812512E-1,-4.938286E-1,1.8990517E-2,-1.2243874E-1,-3.9793625E-1,-4.1926637E-1,-1.997785E-1],"split_indices":[15,8,10,12,1,9,3,0,3,3,15,9,8,4,12,4,1,4,14,0,11,3,9,0,0,12,12,0,9,1,0,0,0,15,11,9,8,0,0,0,0,0,0,1,0,11,1,0,9,0,0,0,0,0,0,0,0,0,0,0,0,0,0,0,0,0,0,0,0],"split_type":[0,0,0,0,0,0,0,0,0,0,0,0,0,0,0,0,0,0,0,0,0,0,0,0,0,0,0,0,0,0,0,0,0,0,0,0,0,0,0,0,0,0,0,0,0,0,0,0,0,0,0,0,0,0,0,0,0,0,0,0,0,0,0,0,0,0,0,0,0],"sum_hessian":[1.279E3,5.74E2,7.05E2,5.08E2,6.6E1,4.03E2,3.02E2,9E0,4.99E2,5E1,1.6E1,1.4E1,3.89E2,1.88E2,1.14E2,4.46E2,5.3E1,2.8E1,2.2E1,1E1,6E0,8E0,6E0,5E0,3.84E2,1.05E2,8.3E1,6.4E1,5E1,4.07E2,3.9E1,4.8E1,5E0,2.1E1,7E0,1.4E1,8E0,3E0,3E0,4E0,4E0,3E0,3E0,6E1,4.5E1,4.4E1,3.9E1,3E0,4.7E1,3.83E2,2.4E1,1.7E1,4E0,3E0,4E0,7E0,7E0,3E0,5E0,4.4E1,1.6E1,3.8E1,7E0,4.1E1,3E0,2.8E1,1.1E1,3.6E1,1.1E1],"tree_param":{"num_deleted":"0","num_feature":"16","num_nodes":"69","size_leaf_vector":"1"}},{"base_weights":[-1.2493339E-1,1.5445795E1,-1.2696025E1,1.7359644E1,-2.4305885E0,-2.0383732E1,-2.4038465E0,1.9717749E1,1.1434915E1,-1.0248055E0,-4.403024E0,-2.0971657E1,-2.5078719E0,-5.791673E-1,-4.7951875E0,1.9784838E0,1.0903581E0,1.2275109E1,-4.9079046E-1,-2.1829278E0,1.5951709E0,-4.63425E0,-2.1461402E-1,5.2853394E-3,-2.11891E1,-3.6616856E-1,3.013298E-2,1.8727974E0,-1.7379034E0,-9.453354E-1,-4.6121573E0,1.350989E0,6.2464776E0,2.4046879E-1,-2.9528103E0,4.5221034E-1,-7.233767E-1,-2.836431E-1,-5.044428E-1,-1.924809E1,-2.2530258E0,2.64211E0,-4.7514748E-2,-1.9860306E-1,-2.3585892E0,-3.192213E0,-4.8154917E-1,7.669441E-1,3.6088508E-1,3.7298586E-2,-3.527831E-1,4.1096877E-2,-1.676878E-1,-1.0158929E0,-2.079859E0,2.98414E-1,-1.1821928E-1,2.4958181E-1,-2.0774296E-1,-2.5390074E-1,3.7317052E-2,-1.8799824E-1,-3.4767738E-1,-4.2548785E-1,-1.1991882E-1],"categories":[],"categories_nodes":[],"categories_segments":[],"categories_sizes":[],"default_left":[0,0,0,0,0,0,0,0,0,0,0,0,0,0,0,0,0,0,0,0,0,0,0,0,0,0,0,0,0,0,0,0,0,0,0,0,0,0,0,0,0,0,0,0,0,0,0,0,0,0,0,0,0,0,0,0,0,0,0,0,0,0,0,0,0],"id":8,"left_children":[1,3,5,7,9,11,13,15,17,19,21,23,25,27,29,-1,-1,31,-1,33,35,37,-1,-1,39,-1,-1,41,43,-1,45,-1,47,-1,49,-1,51,-1,-1,53,-1,55,57,59,61,63,-1,-1,-1,-1,-1,-1,-1,-1,-1,-1,-1,-1,-1,-1,-1,-1,-1,-1,-1],"loss_changes":[2.4976594E5,1.9543406E4,5.5812E4,6.969672E3,1.5076553E2,4.1933125E3,1.3193423E3,1.296875E0,2.1061855E3,1.06646736E2,2.0567932E0,1.7886406E3,4.6481506E1,4.9477887E2,6.8088135E1,0E0,0E0,9.7266406E2,0E0,9.1866806E1,7.791974E1,4.4033813E-1,0E0,0E0,5.737656E2,0E0,0E0,8.2855484E1,1.1227136E2,0E0,2.1584473E1,0E0,6.9906555E1,0E0,4.1476273E1,0E0,8.260344E0,0E0,0E0,2.1140156E3,0E0,5.5848877E1,9.295162E1,4.778383E1,3.841806E1,3.513806E1,0E0,0E0,0E0,0E0,0E0,0E0,0E0,0E0,0E0,0E0,0E0,0E0,0E0,0E0,0E0,0E0,0E0,0E0,0E0],"parents":[2147483647,0,0,1,1,2,2,3,3,4,4,5,5,6,6,7,7,8,8,9,9,10,10,11,11,12,12,13,13,14,14,17,17,19,19,20,20,21,21,24,24,27,27,28,28,30,30,32,32,34,34,36,36,39,39,41,41,42,42,43,43,44,44,45,45],"right_children":[2,4,6,8,10,12,14,16,18,20,22,24,26,28,30,-1,-1,32,-1,34,36,38,-1,-1,40,-1,-1,42,44,-1,46,-1,48,-1,50,-1,52,-1,-1,54,-1,56,58,60,62,64,-1,-1,-1,-1,-1,-1,-1,-1,-1,-1,-1,-1,-1,-1,-1,-1,-1,-1,-1],"split_conditions":[1.5056084E-1,3.0047333E-2,9.897563E3,1E0,2E0,2.994742E-2,2E0,3.9907283E-1,3.999221E-1,8.0814295E-2,1.4302014E-1,2.824229E-1,3.103863E-1,1E0,1.2347347E4,1.9784838E0,1.0903581E0,2E0,-4.9079046E-1,1.2347347E4,1E0,3.8279478E-2,-2.1461402E-1,5.2853394E-3,1E0,-3.6616856E-1,3.013298E-2,5.2294254E-1,3.9597732E-1,-9.453354E-1,3.4726384E-1,1.350989E0,2.6632497E-1,2.4046879E-1,3.808531E-1,4.5221034E-1,1E0,-2.836431E-1,-5.044428E-1,2E0,-2.2530258E0,7.512386E4,3.784585E-2,2.703026E-2,6.628485E4,5.103895E4,-4.8154917E-1,7.669441E-1,3.6088508E-1,3.7298586E-2,-3.527831E-1,4.1096877E-2,-1.676878E-1,-1.0158929E0,-2.079859E0,2.98414E-1,-1.1821928E-1,2.4958181E-1,-2.0774296E-1,-2.5390074E-1,3.7317052E-2,-1.8799824E-1,-3.4767738E-1,-4.2548785E-1,-1.1991882E-1],"split_indices":[8,14,10,6,6,11,6,7,7,14,8,8,8,6,10,0,0,6,0,10,6,14,0,0,13,0,0,7,7,0,7,0,7,0,7,0,2,0,0,6,0,10,11,14,10,10,0,0,0,0,0,0,0,0,0,0,0,0,0,0,0,0,0,0,0],"split_type":[0,0,0,0,0,0,0,0,0,0,0,0,0,0,0,0,0,0,0,0,0,0,0,0,0,0,0,0,0,0,0,0,0,0,0,0,0,0,0,0,0,0,0,0,0,0,0,0,0,0,0,0,0,0,0,0,0,0,0,0,0,0,0,0,0],"sum_hessian":[1.274E3,5.69E2,7.05E2,5.14E2,5.5E1,4.03E2,3.02E2,3.66E2,1.48E2,3.3E1,2.2E1,3.9E2,1.3E1,1.72E2,1.3E2,3.62E2,4E0,1.41E2,7E0,2.3E1,1E1,1.9E1,3E0,4E0,3.86E2,9E0,4E0,5.5E1,1.17E2,3E0,1.27E2,1.16E2,2.5E1,3E0,2E1,4E0,6E0,5E0,1.4E1,1.64E2,2.22E2,3.9E1,1.6E1,3.4E1,8.3E1,1.8E1,1.09E2,1.5E1,1E1,3E0,1.7E1,3E0,3E0,2.5E1,1.39E2,3.6E1,3E0,7E0,9E0,6E0,2.8E1,6E1,2.3E1,1.1E1,7E0],"tree_param":{"num_deleted":"0","num_feature":"16","num_nodes":"65","size_leaf_vector":"1"}},{"base_weights":[8.3525844E-2,1.4104225E1,-1.1678517E1,1.5790653E1,-9.9826735E-1,-1.8407625E1,-2.3567176E0,1.663559E1,9.280711E0,-3.5312128E-1,-3.4956627E0,-2.1143177E0,-1.8949482E1,-1.5096589E0,-3.561233E0,1.7116516E1,9.187781E0,-3.525317E-1,1.0465895E1,1.2312407E0,-1.5287813E0,-4.279631E-1,-8.578177E-2,9.109268E-2,-3.022196E0,-1.658995E-1,-1.912573E1,-9.069786E-1,-4.3321133E0,-3.2958698E-2,-3.641969E0,1.760857E1,1.1731859E1,1.0397213E1,1.0611808E-1,1.1288373E1,6.8137836E-1,3.936621E-1,-1.1335271E-1,-2.1669216E0,1.17222026E-1,-3.866386E-1,-1.235891E-1,-1.7284418E1,-2.0355573E0,3.3623657E-1,-2.446826E0,-2.0559406E-2,-4.783001E-1,-1.695393E0,-3.8096137E0,1.7925303E0,1.146695E0,1.2433404E0,4.4746757E-1,1.1267346E0,2.7946472E-1,1.1796316E0,6.8457794E-1,7.283071E-2,-2.609994E-1,-9.433839E-2,-3.2098827E-1,-1.121414E0,-1.778969E0,1.0674959E-1,-2.0676744E-1,-1.5621431E-1,-3.7644458E-1,-9.925206E-4,-3.0982953E-1,-3.9247295E-1,-1.23689525E-1],"categories":[],"categories_nodes":[],"categories_segments":[],"categories_sizes":[],"default_left":[0,0,0,0,0,0,0,0,0,0,0,0,0,0,0,0,0,0,0,0,0,0,0,0,0,0,0,0,0,0,0,0,0,0,0,0,0,0,0,0,0,0,0,0,0,0,0,0,0,0,0,0,0,0,0,0,0,0,0,0,0,0,0,0,0,0,0,0,0,0,0,0,0],"id":9,"left_children":[1,3,5,7,9,11,13,15,17,19,21,23,25,27,29,31,33,-1,35,37,39,-1,-1,-1,41,-1,43,45,47,-1,49,51,53,55,-1,57,-1,-1,59,61,-1,-1,-1,63,-1,65,67,-1,-1,69,71,-1,-1,-1,-1,-1,-1,-1,-1,-1,-1,-1,-1,-1,-1,-1,-1,-1,-1,-1,-1,-1,-1],"loss_changes":[2.089434E5,1.4736992E4,4.317578E4,2.7058672E3,9.382551E1,3.4913906E3,2.905094E2,1.4868125E3,9.779004E2,9.129051E1,2.1144714E1,4.1204758E1,1.147625E3,2.8864938E2,2.98479E1,9.3271094E2,2.8382397E2,0E0,9.429932E1,7.683659E1,5.0801414E1,0E0,0E0,0E0,1.1809349E1,0E0,5.1546875E2,2.7457645E2,5.4834473E1,0E0,3.1395996E1,5.569922E2,1.4292285E2,1.4050781E2,0E0,2.0791504E1,0E0,0E0,3.3420715E1,2.6322197E1,0E0,0E0,0E0,2.912461E2,0E0,1.4283778E2,6.8722626E1,0E0,0E0,2.597926E1,2.653833E1,0E0,0E0,0E0,0E0,0E0,0E0,0E0,0E0,0E0,0E0,0E0,0E0,0E0,0E0,0E0,0E0,0E0,0E0,0E0,0E0,0E0,0E0],"parents":[2147483647,0,0,1,1,2,2,3,3,4,4,5,5,6,6,7,7,8,8,9,9,10,10,11,11,12,12,13,13,14,14,15,15,16,16,18,18,19,19,20,20,24,24,26,26,27,27,28,28,30,30,31,31,32,32,33,33,35,35,38,38,39,39,43,43,45,45,46,46,49,49,50,50],"right_children":[2,4,6,8,10,12,14,16,18,20,22,24,26,28,30,32,34,-1,36,38,40,-1,-1,-1,42,-1,44,46,48,-1,50,52,54,56,-1,58,-1,-1,60,62,-1,-1,-1,64,-1,66,68,-1,-1,70,72,-1,-1,-1,-1,-1,-1,-1,-1,-1,-1,-1,-1,-1,-1,-1,-1,-1,-1,-1,-1,-1,-1],"split_conditions":[5.1447526E-2,1.5056084E-1,1.0921215E4,1E0,1E0,2.824229E-1,1E0,1E0,5.100079E-2,4.4323635E-1,4.5599382E-2,1.863263E-2,1.9482154E-1,1E0,1.2347347E4,1E0,1E0,-3.525317E-1,4.1042067E-2,1.2838209E-1,2.1605316E-1,-4.279631E-1,-8.578177E-2,9.109268E-2,1E0,-1.658995E-1,1E0,1E0,3.4386927E-1,-3.2958698E-2,3.3778697E-1,1E0,1E0,1E0,1.0611808E-1,4.2268903E5,6.8137836E-1,3.936621E-1,3.163267E-1,2.5950757E-1,1.17222026E-1,-3.866386E-1,-1.235891E-1,1.7103183E-1,-2.0355573E0,1E0,1.1132324E-1,-2.0559406E-2,-4.783001E-1,1.027358E-1,1.4436519E-1,1.7925303E0,1.146695E0,1.2433404E0,4.4746757E-1,1.1267346E0,2.7946472E-1,1.1796316E0,6.8457794E-1,7.283071E-2,-2.609994E-1,-9.433839E-2,-3.2098827E-1,-1.121414E0,-1.778969E0,1.0674959E-1,-2.0676744E-1,-1.5621431E-1,-3.7644458E-1,-9.925206E-4,-3.0982953E-1,-3.9247295E-1,-1.23689525E-1],"split_indices":[15,8,10,3,1,8,3,1,11,7,15,11,9,5,10,4,4,0,15,9,9,0,0,0,3,0,13,4,7,0,7,5,5,5,0,10,0,0,8,8,0,0,0,15,0,1,15,0,0,15,15,0,0,0,0,0,0,0,0,0,0,0,0,0,0,0,0,0,0,0,0,0,0],"split_type":[0,0,0,0,0,0,0,0,0,0,0,0,0,0,0,0,0,0,0,0,0,0,0,0,0,0,0,0,0,0,0,0,0,0,0,0,0,0,0,0,0,0,0,0,0,0,0,0,0,0,0,0,0,0,0,0,0,0,0,0,0,0,0,0,0,0,0,0,0,0,0,0,0],"sum_hessian":[1.265E3,5.77E2,6.88E2,5.19E2,5.8E1,3.99E2,2.89E2,4.58E2,6.1E1,4.7E1,1.1E1,1.3E1,3.86E2,1.71E2,1.18E2,4.29E2,2.9E1,5E0,5.6E1,2E1,2.7E1,8E0,3E0,3E0,1E1,4E0,3.82E2,1.42E2,2.9E1,3E0,1.15E2,3.91E2,3.8E1,2.5E1,4E0,4.4E1,1.2E1,6E0,1.4E1,2.2E1,5E0,6E0,4E0,1.59E2,2.23E2,7.9E1,6.3E1,3E0,2.6E1,1E1,1.05E2,3.7E2,2.1E1,3.4E1,4E0,2.2E1,3E0,3.8E1,6E0,1.1E1,3E0,1.1E1,1.1E1,1.4E1,1.45E2,6.1E1,1.8E1,3.9E1,2.4E1,5E0,5E0,1E2,5E0],"tree_param":{"num_deleted":"0","num_feature":"16","num_nodes":"73","size_leaf_vector":"1"}},{"base_weights":[-3.215019E-1,1.2298845E1,-1.0521297E1,1.3947354E1,-6.980137E-1,-3.2161076E0,-1.7297306E1,-4.3103876E0,1.4249914E1,1.0462662E-1,-3.162639E0,-2.306538E0,-1.5096002E1,-1.5802589E1,-1.8266633E0,-1.9517623E-1,-5.1644063E-1,1.4908271E1,9.3903475E0,1.3814547E0,-1.5832207E0,2.963295E-2,-3.983657E-1,-1.8834925E0,-3.9822536E0,-9.756214E0,-1.764946E0,-1.3331955E1,-1.7118628E1,1.5252725E1,9.5480794E-1,9.953717E0,2.4732856E-1,3.01041E0,-1.3022208E-1,-2.2307968E0,1.8885708E-1,-1.1463277E0,-2.9961364E0,-3.702393E0,-7.184599E-1,-5.193278E0,-1.5302299E0,-9.663625E0,-1.5529247E1,-9.7091025E-1,-1.7509056E0,3.3753428E-1,1.5361968E0,1.0270618E0,3.1871197E-1,3.8849595E-1,6.592293E-2,3.0008528E-1,-1.0836126E-1,-2.7485642E-1,-2.313362E-2,-2.725534E-2,-2.4883318E-1,-3.589344E-3,-3.08639E-1,-9.994011E-2,-3.8776174E-1,-1.5346575E-1,-7.553579E-1,-4.139091E-1,-1.0899602E0,-1.6205071E0,-6.409304E-1],"categories":[],"categories_nodes":[],"categories_segments":[],"categories_sizes":[],"default_left":[0,0,0,0,0,0,0,0,0,0,0,0,0,0,0,0,0,0,0,0,0,0,0,0,0,0,0,0,0,0,0,0,0,0,0,0,0,0,0,0,0,0,0,0,0,0,0,0,0,0,0,0,0,0,0,0,0,0,0,0,0,0,0,0,0,0,0,0,0],"id":10,"left_children":[1,3,5,7,9,11,13,15,17,19,21,23,25,27,-1,-1,-1,29,31,33,35,-1,-1,37,39,41,-1,43,45,47,-1,49,-1,51,53,55,-1,57,59,61,-1,63,-1,65,67,-1,-1,-1,-1,-1,-1,-1,-1,-1,-1,-1,-1,-1,-1,-1,-1,-1,-1,-1,-1,-1,-1,-1,-1],"loss_changes":[1.6386755E5,1.22008125E4,3.479239E4,2.8510781E3,1.2891438E2,3.639081E3,2.4017969E2,8.049103E0,1.4500703E3,1.099417E2,4.6618484E1,2.1722192E2,1.5504639E2,2.627422E2,0E0,0E0,0E0,6.593828E2,2.1698633E2,7.1803185E1,5.36745E1,0E0,0E0,2.0571692E2,2.9861023E1,1.7359528E2,0E0,3.0937305E2,1.0482422E2,4.7752344E2,0E0,8.949414E1,0E0,2.6226059E1,5.1013954E1,1.9034004E1,0E0,1.8107611E2,2.6873657E1,2.454248E1,0E0,4.8855957E1,0E0,1.1876245E2,1.0569531E2,0E0,0E0,0E0,0E0,0E0,0E0,0E0,0E0,0E0,0E0,0E0,0E0,0E0,0E0,0E0,0E0,0E0,0E0,0E0,0E0,0E0,0E0,0E0,0E0],"parents":[2147483647,0,0,1,1,2,2,3,3,4,4,5,5,6,6,7,7,8,8,9,9,10,10,11,11,12,12,13,13,17,17,18,18,19,19,20,20,23,23,24,24,25,25,27,27,28,28,29,29,31,31,33,33,34,34,35,35,37,37,38,38,39,39,41,41,43,43,44,44],"right_children":[2,4,6,8,10,12,14,16,18,20,22,24,26,28,-1,-1,-1,30,32,34,36,-1,-1,38,40,42,-1,44,46,48,-1,50,-1,52,54,56,-1,58,60,62,-1,64,-1,66,68,-1,-1,-1,-1,-1,-1,-1,-1,-1,-1,-1,-1,-1,-1,-1,-1,-1,-1,-1,-1,-1,-1,-1,-1],"split_conditions":[5.1447526E-2,1.5056084E-1,1.5730007E-1,4.8720855E4,1E0,9.989845E-2,1E0,4.0372368E-2,1E0,5.101057E-1,2.8460056E-2,1E0,1E0,4.678507E-1,-1.8266633E0,-1.9517623E-1,-5.1644063E-1,1E0,1E0,4.8636634E-2,8.920014E-2,2.963295E-2,-3.983657E-1,1E0,3.8466135E-1,1E0,-1.764946E0,1E0,2.4542488E-1,5.100079E-2,9.5480794E-1,3.8421512E-1,2.4732856E-1,4.4439387E-2,9.495571E-2,3.334067E-1,1.8885708E-1,5.6115055E-1,1.1131497E-1,8.760048E3,-7.184599E-1,1.4750504E-2,-1.5302299E0,2.2610642E-1,7.363237E-1,-9.7091025E-1,-1.7509056E0,3.3753428E-1,1.5361968E0,1.0270618E0,3.1871197E-1,3.8849595E-1,6.592293E-2,3.0008528E-1,-1.0836126E-1,-2.7485642E-1,-2.313362E-2,-2.725534E-2,-2.4883318E-1,-3.589344E-3,-3.08639E-1,-9.994011E-2,-3.8776174E-1,-1.5346575E-1,-7.553579E-1,-4.139091E-1,-1.0899602E0,-1.6205071E0,-6.409304E-1],"split_indices":[15,8,15,10,5,14,13,15,3,7,11,5,13,15,0,0,0,5,5,14,14,0,0,3,8,0,0,3,9,11,0,7,0,15,9,8,0,7,8,10,0,11,0,15,9,0,0,0,0,0,0,0,0,0,0,0,0,0,0,0,0,0,0,0,0,0,0,0,0],"split_type":[0,0,0,0,0,0,0,0,0,0,0,0,0,0,0,0,0,0,0,0,0,0,0,0,0,0,0,0,0,0,0,0,0,0,0,0,0,0,0,0,0,0,0,0,0,0,0,0,0,0,0,0,0,0,0,0,0,0,0,0,0,0,0,0,0,0,0,0,0],"sum_hessian":[1.271E3,5.68E2,7.03E2,5.04E2,6.4E1,3.39E2,3.64E2,8E0,4.96E2,4.9E1,1.5E1,3.16E2,2.3E1,1.5E2,2.14E2,3E0,5E0,4.35E2,6.1E1,2.8E1,2.1E1,3E0,1.2E1,2.54E2,6.2E1,9E0,1.4E1,5.6E1,9.4E1,4.07E2,2.8E1,5.6E1,5E0,1.3E1,1.5E1,1.8E1,3E0,1.54E2,1E2,5.9E1,3E0,6E0,3E0,2.3E1,3.3E1,6E0,8.8E1,4E0,4.03E2,5.3E1,3E0,9E0,4E0,3E0,1.2E1,1.4E1,4E0,9.4E1,6E1,3E0,9.7E1,4E0,5.5E1,3E0,3E0,5E0,1.8E1,3E1,3E0],"tree_param":{"num_deleted":"0","num_feature":"16","num_nodes":"69","size_leaf_vector":"1"}},{"base_weights":[1.5760686E-1,1.1032921E1,-9.296642E0,1.2370515E1,-1.7387099E0,-1.4788522E1,-1.6599954E0,1.4321231E1,7.6129704E0,-3.5077906E-1,-4.101316E0,-1.5184678E1,-1.9491069E0,2.1582823E0,-2.5377936E0,2.0783019E-1,1.444628E1,-4.2401442E-1,8.273404E0,-2.3538392E0,1.2874496E0,-2.0144768E-1,-4.3372073E0,-1.8066406E-4,-1.5344493E1,-2.9910579E0,-6.2871224E-1,5.212969E-1,3.659722E0,-1.2469475E0,-3.6053743E0,6.7417437E-1,1.4511176E0,9.34191E0,3.4930172E0,-3.4356587E0,-1.4514233E0,3.2507536E-1,7.796349E-1,-2.2054863E-1,-4.616519E-1,-1.3773348E1,-1.6704311E0,-1.5651874E-1,-3.669164E-1,4.443121E-2,-1.5445586E-1,4.2522955E-1,-3.1245488E-1,1.810979E-1,3.8091323E-1,-2.8058975E0,4.5590135E-1,-1.9567022E0,-3.6852412E0,9.5778936E-1,-1.4061928E-3,5.5152595E-1,2.460008E-1,-4.3677074E-1,-1.6446953E-1,-3.182691E-2,-2.3426735E-1,1.2718068E-1,-1.2609187E-1,-1.2081326E0,-1.5482093E0,-8.5581265E-2,2.4824476E-1,-1.6602851E-1,-3.4458283E-1,3.7659234E-1,1.0160947E-2,-2.8146067E-1,-8.790382E-2,-3.7305343E-1,-1.897393E-1],"categories":[],"categories_nodes":[],"categories_segments":[],"categories_sizes":[],"default_left":[0,0,0,0,0,0,0,0,0,0,0,0,0,0,0,0,0,0,0,0,0,0,0,0,0,0,0,0,0,0,0,0,0,0,0,0,0,0,0,0,0,0,0,0,0,0,0,0,0,0,0,0,0,0,0,0,0,0,0,0,0,0,0,0,0,0,0,0,0,0,0,0,0,0,0,0,0],"id":11,"left_children":[1,3,5,7,9,11,13,15,17,19,21,23,25,27,29,-1,31,-1,33,35,37,-1,39,-1,41,43,45,47,49,51,53,-1,-1,55,57,59,61,-1,63,-1,-1,65,-1,-1,-1,-1,-1,-1,67,-1,-1,69,71,73,75,-1,-1,-1,-1,-1,-1,-1,-1,-1,-1,-1,-1,-1,-1,-1,-1,-1,-1,-1,-1,-1,-1],"loss_changes":[1.30886984E5,1.0134797E4,2.8536277E4,4.865383E3,1.8547198E2,1.984625E3,9.640571E2,5.5021094E2,1.2719355E3,1.2444486E2,1.6004333E0,9.3172656E2,1.6004715E1,1.3081529E2,3.1659753E2,0E0,8.966406E1,0E0,7.335508E2,1.1609665E1,1.8402485E1,0E0,5.357666E-1,0E0,5.8178906E2,1.0253067E0,7.565344E0,8.5318275E1,8.359375E-1,2.853274E2,9.511719E0,0E0,0E0,2.694912E2,4.7013275E1,4.5013123E0,1.0363565E1,0E0,1.9681103E1,0E0,0E0,3.3916016E2,0E0,0E0,0E0,0E0,0E0,0E0,3.7053047E1,0E0,0E0,3.5333282E1,6.0598476E1,4.922117E0,2.638794E0,0E0,0E0,0E0,0E0,0E0,0E0,0E0,0E0,0E0,0E0,0E0,0E0,0E0,0E0,0E0,0E0,0E0,0E0,0E0,0E0,0E0,0E0],"parents":[2147483647,0,0,1,1,2,2,3,3,4,4,5,5,6,6,7,7,8,8,9,9,10,10,11,11,12,12,13,13,14,14,16,16,18,18,19,19,20,20,22,22,24,24,25,25,26,26,27,27,28,28,29,29,30,30,33,33,34,34,35,35,36,36,38,38,41,41,48,48,51,51,52,52,53,53,54,54],"right_children":[2,4,6,8,10,12,14,16,18,20,22,24,26,28,30,-1,32,-1,34,36,38,-1,40,-1,42,44,46,48,50,52,54,-1,-1,56,58,60,62,-1,64,-1,-1,66,-1,-1,-1,-1,-1,-1,68,-1,-1,70,72,74,76,-1,-1,-1,-1,-1,-1,-1,-1,-1,-1,-1,-1,-1,-1,-1,-1,-1,-1,-1,-1,-1,-1],"split_conditions":[5.1447526E-2,3.0047333E-2,1.0921215E4,1E0,2E0,2.994742E-2,1E0,1E0,1E0,1E0,3.5438504E-2,6.89617E-2,3.5371605E-2,1E0,2E0,2.0783019E-1,5.0785246E4,-4.2401442E-1,2E0,5.66452E-2,1.8849805E-2,-2.0144768E-1,1.3533645E4,-1.8066406E-4,3E0,1.3262883E-1,5.82648E-2,2.489541E-2,1.5875287E-2,1E0,5.757504E-2,6.7417437E-1,1.4511176E0,9.9540904E-2,2.6378604E-2,5.250176E4,1E0,3.2507536E-1,4.8372954E-2,-2.2054863E-1,-4.616519E-1,5.5991626E-1,-1.6704311E0,-1.5651874E-1,-3.669164E-1,4.443121E-2,-1.5445586E-1,4.2522955E-1,9.669376E-2,1.810979E-1,3.8091323E-1,9.324161E-2,1.3038988E4,1E0,7.58253E4,9.5778936E-1,-1.4061928E-3,5.5152595E-1,2.460008E-1,-4.3677074E-1,-1.6446953E-1,-3.182691E-2,-2.3426735E-1,1.2718068E-1,-1.2609187E-1,-1.2081326E0,-1.5482093E0,-8.5581265E-2,2.4824476E-1,-1.6602851E-1,-3.4458283E-1,3.7659234E-1,1.0160947E-2,-2.8146067E-1,-8.790382E-2,-3.7305343E-1,-1.897393E-1],"split_indices":[15,14,10,6,6,11,6,12,12,12,11,15,14,12,6,0,10,0,6,14,11,0,10,0,6,9,11,11,14,12,15,0,0,9,9,10,6,0,15,0,0,15,0,0,0,0,0,0,14,0,0,15,10,12,10,0,0,0,0,0,0,0,0,0,0,0,0,0,0,0,0,0,0,0,0,0,0],"split_type":[0,0,0,0,0,0,0,0,0,0,0,0,0,0,0,0,0,0,0,0,0,0,0,0,0,0,0,0,0,0,0,0,0,0,0,0,0,0,0,0,0,0,0,0,0,0,0,0,0,0,0,0,0,0,0,0,0,0,0,0,0,0,0,0,0,0,0,0,0,0,0,0,0,0,0,0,0],"sum_hessian":[1.271E3,5.91E2,6.8E2,5.35E2,5.6E1,3.95E2,2.85E2,3.78E2,1.57E2,3.6E1,2E1,3.83E2,1.2E1,5.3E1,2.32E2,4E0,3.74E2,8E0,1.49E2,1.6E1,2E1,3E0,1.7E1,4E0,3.79E2,6E0,6E0,2.6E1,2.7E1,1.06E2,1.26E2,4E0,3.7E2,1.21E2,2.8E1,6E0,1E1,3E0,1.7E1,3E0,1.4E1,1.81E2,1.98E2,3E0,3E0,3E0,3E0,4E0,2.2E1,3E0,2.4E1,5.5E1,5.1E1,7E0,1.19E2,1.18E2,3E0,8E0,2E1,3E0,3E0,5E0,5E0,1.4E1,3E0,9.5E1,8.6E1,1.9E1,3E0,2.1E1,3.4E1,4E0,4.7E1,3E0,4E0,1.15E2,4E0],"tree_param":{"num_deleted":"0","num_feature":"16","num_nodes":"77","size_leaf_vector":"1"}},{"base_weights":[-1.2331384E-1,1.0132252E1,-8.607957E0,1.1367628E1,-8.647317E-1,-1.3451708E1,-1.5925543E0,-4.873115E-1,1.166495E1,-1.3064384E-1,-2.8294277E0,-2.0175533E0,-1.3909756E1,-2.578477E0,-5.236479E-1,1.2102801E1,7.5925894E0,5.580128E-1,-2.247342E0,-3.4262845E-1,-1.9845077E0,1.2552996E-1,-2.808543E0,-1.40105715E1,-5.5236053E-2,-1.975424E0,-3.2780569E0,2.5590977E-1,-2.374209E0,1.2449693E1,6.9342494E0,9.066845E0,5.769609E0,1.1074088E0,-1.7192873E0,-3.7190515E-1,2.6251907E-2,-6.735726E-2,-3.4547836E-1,-1.12818375E-1,-3.3678684E0,-1.2526812E1,-1.4979861E0,-1.2301401E0,-2.991409E0,-3.4791217E0,-1.360312E0,1.1611683E0,-1.0857444E0,-1.612692E0,-3.1710872E-1,1.2716893E0,7.644448E-1,7.6113266E-1,4.6114635E-2,4.901207E-1,9.5782083E-1,2.2315757E-1,6.311453E-1,2.0788376E-1,-8.490471E-2,4.6258927E-3,-3.055012E-1,-1.486742E-1,-3.9616737E-1,-9.312615E-1,-1.3444103E0,-2.1752988E-1,1.3365719E-2,-1.7705865E-1,-3.4263107E-1,-3.0897483E-1,-4.0551135E-1,4.775257E-2,-2.5585198E-1,1.8247253E-1,-1.5898234E-1,-1.6084914E-1,4.021101E-1,-8.403753E-2,-2.7206984E-1],"categories":[],"categories_nodes":[],"categories_segments":[],"categories_sizes":[],"default_left":[0,0,0,0,0,0,0,0,0,0,0,0,0,0,0,0,0,0,0,0,0,0,0,0,0,0,0,0,0,0,0,0,0,0,0,0,0,0,0,0,0,0,0,0,0,0,0,0,0,0,0,0,0,0,0,0,0,0,0,0,0,0,0,0,0,0,0,0,0,0,0,0,0,0,0,0,0,0,0,0,0],"id":12,"left_children":[1,3,5,7,9,11,13,-1,15,17,19,21,23,25,27,29,31,33,35,-1,37,-1,39,41,-1,43,45,47,49,51,53,55,57,59,61,-1,-1,-1,-1,-1,63,65,-1,67,69,71,73,75,77,79,-1,-1,-1,-1,-1,-1,-1,-1,-1,-1,-1,-1,-1,-1,-1,-1,-1,-1,-1,-1,-1,-1,-1,-1,-1,-1,-1,-1,-1,-1,-1],"loss_changes":[1.10509016E5,7.821449E3,2.3595281E4,2.5532969E3,8.472365E1,2.1245E3,2.9899963E2,0E0,8.1391406E2,6.53919E1,1.2692566E0,4.753504E1,5.241797E2,5.5963257E1,1.9968901E2,7.3303906E2,8.743994E1,4.4442696E1,4.160796E1,0E0,1.5019875E1,0E0,9.358574E0,3.76125E2,0E0,5.841034E1,2.1101868E1,1.2028604E2,1.9766312E1,4.5103906E2,1.3235669E2,1.0569336E1,3.5759155E1,5.4980656E1,1.6649305E1,0E0,0E0,0E0,0E0,0E0,5.280243E0,3.4948633E2,0E0,6.345198E1,1.1985291E1,9.273071E-1,1.8838654E1,1.1060194E2,1.1325143E2,1.7395424E1,0E0,0E0,0E0,0E0,0E0,0E0,0E0,0E0,0E0,0E0,0E0,0E0,0E0,0E0,0E0,0E0,0E0,0E0,0E0,0E0,0E0,0E0,0E0,0E0,0E0,0E0,0E0,0E0,0E0,0E0,0E0],"parents":[2147483647,0,0,1,1,2,2,3,3,4,4,5,5,6,6,8,8,9,9,10,10,11,11,12,12,13,13,14,14,15,15,16,16,17,17,18,18,20,20,22,22,23,23,25,25,26,26,27,27,28,28,29,29,30,30,31,31,32,32,33,33,34,34,40,40,41,41,43,43,44,44,45,45,46,46,47,47,48,48,49,49],"right_children":[2,4,6,8,10,12,14,-1,16,18,20,22,24,26,28,30,32,34,36,-1,38,-1,40,42,-1,44,46,48,50,52,54,56,58,60,62,-1,-1,-1,-1,-1,64,66,-1,68,70,72,74,76,78,80,-1,-1,-1,-1,-1,-1,-1,-1,-1,-1,-1,-1,-1,-1,-1,-1,-1,-1,-1,-1,-1,-1,-1,-1,-1,-1,-1,-1,-1,-1,-1],"split_conditions":[5.1447526E-2,1.5056084E-1,1.0921215E4,1E0,1E0,2.824229E-1,1E0,-4.873115E-1,1E0,1E0,4.1915588E-2,1.863263E-2,2.994742E-2,1E0,1E0,1E0,3.0358901E-2,1E0,6.29561E-2,-3.4262845E-1,1E0,1.2552996E-1,1.6780213E-1,1E0,-5.5236053E-2,1E0,9.073931E-2,1E0,1E0,1E0,1E0,1.9327816E-2,1.12192414E5,1E0,6.5167676E4,-3.7190515E-1,2.6251907E-2,-6.735726E-2,-3.4547836E-1,-1.12818375E-1,1.3262883E-1,3.0890977E-1,-1.4979861E0,1.0912177E-1,7.561792E-2,2.0284137E-1,9.5340535E-2,1E0,1.2170872E-1,1.04830615E-1,-3.1710872E-1,1.2716893E0,7.644448E-1,7.6113266E-1,4.6114635E-2,4.901207E-1,9.5782083E-1,2.2315757E-1,6.311453E-1,2.0788376E-1,-8.490471E-2,4.6258927E-3,-3.055012E-1,-1.486742E-1,-3.9616737E-1,-9.312615E-1,-1.3444103E0,-2.1752988E-1,1.3365719E-2,-1.7705865E-1,-3.4263107E-1,-3.0897483E-1,-4.0551135E-1,4.775257E-2,-2.5585198E-1,1.8247253E-1,-1.5898234E-1,-1.6084914E-1,4.021101E-1,-8.403753E-2,-2.7206984E-1],"split_indices":[15,8,10,12,1,8,12,0,4,4,15,11,11,4,1,1,15,5,11,0,5,0,8,13,0,1,11,4,4,5,5,9,10,2,10,0,0,0,0,0,9,15,0,15,15,9,11,5,15,15,0,0,0,0,0,0,0,0,0,0,0,0,0,0,0,0,0,0,0,0,0,0,0,0,0,0,0,0,0,0,0],"split_type":[0,0,0,0,0,0,0,0,0,0,0,0,0,0,0,0,0,0,0,0,0,0,0,0,0,0,0,0,0,0,0,0,0,0,0,0,0,0,0,0,0,0,0,0,0,0,0,0,0,0,0,0,0,0,0,0,0,0,0,0,0,0,0,0,0,0,0,0,0,0,0,0,0,0,0,0,0,0,0,0,0],"sum_hessian":[1.268E3,5.74E2,6.94E2,5.16E2,5.8E1,4.1E2,2.84E2,9E0,5.07E2,4.3E1,1.5E1,1.6E1,3.94E2,1.47E2,1.37E2,4.56E2,5.1E1,3.3E1,1E1,7E0,8E0,3E0,1.3E1,3.91E2,3E0,8.1E1,6.6E1,9.7E1,4E1,4.26E2,3E1,2.6E1,2.5E1,2.7E1,6E0,6E0,4E0,5E0,3E0,4E0,9E0,1.6E2,2.31E2,4.8E1,3.3E1,5.9E1,7E0,5.8E1,3.9E1,2.2E1,1.8E1,4.02E2,2.4E1,2.7E1,3E0,4E0,2.2E1,4E0,2.1E1,1.8E1,9E0,3E0,3E0,3E0,6E0,3.8E1,1.22E2,2.8E1,2E1,1E1,2.3E1,3.9E1,2E1,3E0,4E0,4.7E1,1.1E1,3.6E1,3E0,1.4E1,8E0],"tree_param":{"num_deleted":"0","num_feature":"16","num_nodes":"81","size_leaf_vector":"1"}},{"base_weights":[-1.4317586E-1,9.114266E0,-7.648301E0,1.1421159E1,4.3170247E0,-2.184805E0,-1.2718784E1,1.1770732E1,4.5876634E-1,-1.1187533E0,6.8737864E0,-1.7052668E0,-1.3297894E0,-1.0413256E1,-1.3117838E0,1.1849853E1,1.4697944E-1,-1.3407849E0,2.1927795E0,-1.9291456E0,4.4912386E0,7.7448773E0,2.776356E0,1.6050317E0,-2.332489E0,-4.025226E0,-1.4102753E0,1.2135881E0,1.0466326E0,-2.9801342E-1,6.337605E-2,2.7358085E-1,1.1015558E-1,-2.5229864E0,1.3203901E0,5.864675E-1,1.6516332E-1,9.46289E-1,6.6709156E0,5.246007E-1,1.4508524E0,2.7512128E0,6.345858E-1,-1.3024516E0,-3.1467237E0,-1.1753002E0,-5.773371E0,-1.5251456E-1,-3.3741263E-1,3.1078455E-1,-7.311432E-2,7.528999E-1,5.591392E-1,3.3913133E-1,5.929172E-2,3.191949E-1,-2.5045587E-2,-3.1478722E-3,2.827581E-1,1.473597E-3,-1.8414687E-1,-7.2064465E-1,-2.9334483E-1,1.435121E-1,-4.0727454E-1,-1.6742586E-1,-6.7391056E-1],"categories":[],"categories_nodes":[],"categories_segments":[],"categories_sizes":[],"default_left":[0,0,0,0,0,0,0,0,0,0,0,0,0,0,0,0,0,0,0,0,0,0,0,0,0,0,0,0,0,0,0,0,0,0,0,0,0,0,0,0,0,0,0,0,0,0,0,0,0,0,0,0,0,0,0,0,0,0,0,0,0,0,0,0,0,0,0],"id":13,"left_children":[1,3,5,7,9,11,13,15,17,19,21,23,-1,25,-1,27,-1,29,31,33,35,37,39,41,43,45,-1,-1,-1,-1,-1,-1,-1,47,49,-1,-1,-1,51,-1,53,55,57,59,61,63,65,-1,-1,-1,-1,-1,-1,-1,-1,-1,-1,-1,-1,-1,-1,-1,-1,-1,-1,-1,-1],"loss_changes":[8.907137E4,6.3029883E3,1.9585625E4,1.4776406E3,2.6205115E3,1.7998928E3,2.0105469E2,2.8821875E2,4.350584E1,2.859882E2,4.3535986E2,6.868441E2,0E0,1.3337817E3,0E0,2.0191406E1,0E0,2.4547476E1,1.1343155E0,1.0753548E2,2.1513855E1,1.3060693E2,7.095355E1,5.720639E1,2.2821924E2,1.0780249E2,0E0,0E0,0E0,0E0,0E0,0E0,0E0,3.3921844E1,3.5275494E1,0E0,0E0,0E0,2.089209E1,0E0,2.6290653E1,3.255011E1,4.390929E1,8.8065445E1,1.12199585E2,8.14804E1,4.4138123E1,0E0,0E0,0E0,0E0,0E0,0E0,0E0,0E0,0E0,0E0,0E0,0E0,0E0,0E0,0E0,0E0,0E0,0E0,0E0,0E0],"parents":[2147483647,0,0,1,1,2,2,3,3,4,4,5,5,6,6,7,7,8,8,9,9,10,10,11,11,13,13,15,15,17,17,18,18,19,19,20,20,21,21,22,22,23,23,24,24,25,25,33,33,34,34,38,38,40,40,41,41,42,42,43,43,44,44,45,45,46,46],"right_children":[2,4,6,8,10,12,14,16,18,20,22,24,-1,26,-1,28,-1,30,32,34,36,38,40,42,44,46,-1,-1,-1,-1,-1,-1,-1,48,50,-1,-1,-1,52,-1,54,56,58,60,62,64,66,-1,-1,-1,-1,-1,-1,-1,-1,-1,-1,-1,-1,-1,-1,-1,-1,-1,-1,-1,-1],"split_conditions":[5.1447526E-2,1E0,1.5730007E-1,3.0047333E-2,7.966373E4,1E0,2E0,3.999221E-1,1.6427284E-1,9.611923E-2,2E0,1E0,-1.3297894E0,1E0,-1.3117838E0,3.4726384E-1,1.4697944E-1,3.9597732E-1,2.2213456E-1,8.361243E-2,7.8807294E-2,2.073195E-1,1.6094488E-1,4.6463922E-1,2E0,4.678507E-1,-1.4102753E0,1.2135881E0,1.0466326E0,-2.9801342E-1,6.337605E-2,2.7358085E-1,1.1015558E-1,2E0,3.6510862E-2,5.864675E-1,1.6516332E-1,9.46289E-1,2.9547125E5,5.246007E-1,7.5730886E-3,2.3741435E-1,2.484645E-1,8.1895255E-2,7.1665215E3,1.5126439E-2,6.091894E-1,-1.5251456E-1,-3.3741263E-1,3.1078455E-1,-7.311432E-2,7.528999E-1,5.591392E-1,3.3913133E-1,5.929172E-2,3.191949E-1,-2.5045587E-2,-3.1478722E-3,2.827581E-1,1.473597E-3,-1.8414687E-1,-7.2064465E-1,-2.9334483E-1,1.435121E-1,-4.0727454E-1,-1.6742586E-1,-6.7391056E-1],"split_indices":[15,6,15,14,10,13,6,7,9,11,6,6,0,13,0,7,0,7,9,14,9,7,7,7,6,15,0,0,0,0,0,0,0,6,11,0,0,0,10,0,14,9,9,15,10,11,7,0,0,0,0,0,0,0,0,0,0,0,0,0,0,0,0,0,0,0,0],"split_type":[0,0,0,0,0,0,0,0,0,0,0,0,0,0,0,0,0,0,0,0,0,0,0,0,0,0,0,0,0,0,0,0,0,0,0,0,0,0,0,0,0,0,0,0,0,0,0,0,0,0,0,0,0,0,0,0,0,0,0,0,0,0,0,0,0,0,0],"sum_hessian":[1.28E3,5.73E2,7.07E2,3.86E2,1.87E2,3.41E2,3.66E2,3.74E2,1.2E1,6E1,1.27E2,3.28E2,1.3E1,5.8E1,3.08E2,3.71E2,3E0,6E0,6E0,5.3E1,7E0,1.04E2,2.3E1,5.2E1,2.76E2,2.2E1,3.6E1,3.01E2,7E1,3E0,3E0,3E0,3E0,4.5E1,8E0,4E0,3E0,3.7E1,6.7E1,7E0,1.6E1,2.3E1,2.9E1,1.23E2,1.53E2,9E0,1.3E1,2.2E1,2.3E1,4E0,4E0,3.4E1,3.3E1,4E0,1.2E1,2E1,3E0,2.3E1,6E0,3.6E1,8.7E1,6E0,1.47E2,5E0,4E0,3E0,1E1],"tree_param":{"num_deleted":"0","num_feature":"16","num_nodes":"67","size_leaf_vector":"1"}},{"base_weights":[-6.29733E-2,8.130693E0,-7.0877447E0,9.395227E0,-5.5968803E-1,-1.9562689E0,-1.1433027E1,1.0764263E1,5.745798E0,5.1756525E-1,-2.6098025E0,-1.4521896E0,-1.0136892E1,-1.0440149E1,-1.224187E0,1.0865908E1,-1.227253E-1,6.9006658E0,1.4252781E0,1.5174304E0,-7.221648E-1,-1.2394186E0,-2.9589468E-1,1.3682431E0,-2.0310102E0,-7.6548505E-1,-1.2943693E0,-9.752881E0,-1.2163045E0,1.1178197E0,9.5486414E-1,7.1965656E0,-8.117249E-2,2.7561905E0,-3.5315916E-1,3.2565138E-1,8.951116E-1,-1.3606057E0,1.8483436E-1,6.893759E-2,-2.8583583E-1,3.5823604E-1,8.7300366E-1,-1.9000382E0,-9.47981E-1,-9.897312E0,-4.2204124E-1,7.282851E-1,3.154013E-1,4.4628906E-1,1.6905145E-1,1.9799265E-1,-3.6969654E-2,-1.8727358E-1,1.0280657E-1,-3.889353E-2,1.9872521E-1,-1.1594113E-1,-2.5348952E-1,-6.624695E-1,-1.00659E0],"categories":[],"categories_nodes":[],"categories_segments":[],"categories_sizes":[],"default_left":[0,0,0,0,0,0,0,0,0,0,0,0,0,0,0,0,0,0,0,0,0,0,0,0,0,0,0,0,0,0,0,0,0,0,0,0,0,0,0,0,0,0,0,0,0,0,0,0,0,0,0,0,0,0,0,0,0,0,0,0,0],"id":14,"left_children":[1,3,5,7,9,11,13,15,17,19,21,23,25,27,-1,29,-1,31,33,35,37,39,-1,41,43,-1,-1,45,-1,-1,-1,47,-1,49,-1,-1,51,53,-1,-1,-1,-1,55,57,-1,59,-1,-1,-1,-1,-1,-1,-1,-1,-1,-1,-1,-1,-1,-1,-1],"loss_changes":[7.269662E4,6.412008E3,1.5140082E4,2.4812148E3,1.6698767E2,1.2759921E3,1.6772266E2,4.6309766E2,6.9370215E2,6.3073986E1,8.772629E0,4.8600623E2,2.6316772E1,8.503906E1,0E0,4.382422E1,0E0,2.591543E2,2.1424567E2,2.7388458E1,4.026058E1,2.3828697E1,0E0,5.2795006E1,2.2198181E2,0E0,0E0,6.0509766E1,0E0,0E0,0E0,1.4352539E1,0E0,3.7925156E1,0E0,0E0,3.091779E1,2.516819E1,0E0,0E0,0E0,0E0,6.1235783E1,1.1131769E2,0E0,1.7304688E0,0E0,0E0,0E0,0E0,0E0,0E0,0E0,0E0,0E0,0E0,0E0,0E0,0E0,0E0,0E0],"parents":[2147483647,0,0,1,1,2,2,3,3,4,4,5,5,6,6,7,7,8,8,9,9,10,10,11,11,12,12,13,13,15,15,17,17,18,18,19,19,20,20,21,21,23,23,24,24,27,27,31,31,33,33,36,36,37,37,42,42,43,43,45,45],"right_children":[2,4,6,8,10,12,14,16,18,20,22,24,26,28,-1,30,-1,32,34,36,38,40,-1,42,44,-1,-1,46,-1,-1,-1,48,-1,50,-1,-1,52,54,-1,-1,-1,-1,56,58,-1,60,-1,-1,-1,-1,-1,-1,-1,-1,-1,-1,-1,-1,-1,-1,-1],"split_conditions":[5.6180075E-2,1.5056084E-1,1.5730007E-1,1E0,2E0,4.0770864E-1,3E0,3.0047333E-2,2E0,4.7499603E-1,3.9766493E-1,1E0,3E0,7.712937E-1,-1.224187E0,3.4726384E-1,-1.227253E-1,3.9907283E-1,3.5419738E-1,1.028399E-1,5.1447526E-2,1E0,-2.9589468E-1,2.489541E-2,3.328041E-1,-7.6548505E-1,-1.2943693E0,8.7984633E-1,-1.2163045E0,1.1178197E0,9.5486414E-1,1.476182E-1,-8.117249E-2,2.6378604E-2,-3.5315916E-1,3.2565138E-1,1E0,8.920014E-2,1.8483436E-1,6.893759E-2,-2.8583583E-1,3.5823604E-1,4.4976894E-2,2E0,-9.47981E-1,1E0,-4.2204124E-1,7.282851E-1,3.154013E-1,4.4628906E-1,1.6905145E-1,1.9799265E-1,-3.6969654E-2,-1.8727358E-1,1.0280657E-1,-3.889353E-2,1.9872521E-1,-1.1594113E-1,-2.5348952E-1,-6.624695E-1,-1.00659E0],"split_indices":[15,8,15,6,6,8,6,14,6,7,7,6,6,15,0,7,0,7,7,9,15,1,0,11,9,0,0,8,0,0,0,8,0,9,0,0,6,14,0,0,0,0,14,6,0,6,0,0,0,0,0,0,0,0,0,0,0,0,0,0,0],"split_type":[0,0,0,0,0,0,0,0,0,0,0,0,0,0,0,0,0,0,0,0,0,0,0,0,0,0,0,0,0,0,0,0,0,0,0,0,0,0,0,0,0,0,0,0,0,0,0,0,0,0,0,0,0,0,0,0,0,0,0,0,0],"sum_hessian":[1.261E3,5.82E2,6.79E2,5.08E2,7.4E1,3.12E2,3.67E2,3.68E2,1.4E2,4.9E1,2.5E1,2.95E2,1.7E1,1.71E2,1.96E2,3.65E2,3E0,1.1E2,3E1,2.7E1,2.2E1,6E0,1.9E1,5E1,2.45E2,1.1E1,6E0,1.27E2,4.4E1,2.89E2,7.6E1,1.06E2,4E0,2.4E1,6E0,6E0,2.1E1,1.8E1,4E0,3E0,3E0,8E0,4.2E1,2.42E2,3E0,1.23E2,4E0,1.03E2,3E0,8E0,1.6E1,1.1E1,1E1,1.5E1,3E0,2E1,2.2E1,1.13E2,1.29E2,8E0,1.15E2],"tree_param":{"num_deleted":"0","num_feature":"16","num_nodes":"61","size_leaf_vector":"1"}},{"base_weights":[-5.9030727E-2,7.169392E0,-6.3587523E0,8.12403E0,-5.034802E-1,-9.857854E0,-1.292934E0,9.40434E0,4.869809E0,7.0474106E-1,-2.6975741E0,-9.6772844E-1,-1.0057459E1,1.2049006E0,-1.786999E0,-6.225319E-1,9.566863E-1,5.962503E0,1.1832824E0,-7.145828E-1,1.541304E0,-2.9712E-1,-1.063556E-1,2.4788883E-1,-2.8531265E-1,-7.3732505E0,-1.0601303E1,-6.058036E-1,2.8225524E0,-2.5029225E0,-9.78414E-1,-2.521684E-1,1.432253E-1,-1.0307103E-1,6.155576E0,-3.214914E-1,2.3557749E0,7.4485254E-1,-1.8106728E0,-5.1863194E-2,2.0748296E0,1.4462529E-1,-1.0124474E-1,-1.8624879E0,-1.1705844E0,-9.641647E0,-1.1090055E1,-1.1770656E0,1.6861527E-1,3.286823E-1,2.0456908E0,-2.6007845E0,-1.1272182E0,3.8682958E-1,-2.2113757E0,6.2827903E-1,2.1257554E-1,3.9503917E-1,1.440678E-1,-4.6303865E-2,2.0685034E-1,-2.3215829E-1,-4.63912E-2,1.1673136E-1,-1.016832E-1,2.866588E-1,1.2421284E-1,-6.256952E-2,-4.9536592E-1,-7.9812455E-1,-1.1012635E0,-4.714926E-1,-1.1159672E0,-2.338394E-1,7.1205996E-2,9.0117835E-2,2.7344602E-1,-2.6989248E-1,-1.4275548E-1,4.1524354E-2,-2.2247334E-1,3.6432114E-1,5.345482E-3,-2.3605497E-1,4.299059E-2],"categories":[],"categories_nodes":[],"categories_segments":[],"categories_sizes":[],"default_left":[0,0,0,0,0,0,0,0,0,0,0,0,0,0,0,0,0,0,0,0,0,0,0,0,0,0,0,0,0,0,0,0,0,0,0,0,0,0,0,0,0,0,0,0,0,0,0,0,0,0,0,0,0,0,0,0,0,0,0,0,0,0,0,0,0,0,0,0,0,0,0,0,0,0,0,0,0,0,0,0,0,0,0,0,0],"id":15,"left_children":[1,3,5,7,9,11,13,15,17,19,21,23,25,27,29,31,-1,33,35,37,39,-1,-1,41,-1,43,45,47,49,51,53,-1,-1,-1,55,-1,57,59,61,63,65,-1,-1,67,-1,69,71,73,-1,-1,75,77,79,81,83,-1,-1,-1,-1,-1,-1,-1,-1,-1,-1,-1,-1,-1,-1,-1,-1,-1,-1,-1,-1,-1,-1,-1,-1,-1,-1,-1,-1,-1,-1],"loss_changes":[5.837855E4,4.3770117E3,1.2129436E4,2.1665625E3,1.795148E2,7.089414E2,3.4893326E2,6.252031E2,6.0523804E2,5.3344963E1,7.570587E0,2.3626484E1,4.9991406E2,1.3937709E2,1.3358905E2,3.0928123E1,0E0,1.6431836E2,1.9322032E2,2.8543114E1,2.3907463E1,0E0,0E0,1.2036645E1,0E0,1.6495103E3,4.644922E1,3.2098785E1,2.2930298E0,1.3762329E1,1.8938425E2,0E0,0E0,0E0,4.5086426E1,0E0,3.662642E1,1.3748405E1,5.80373E0,1.05987015E1,1.0284599E1,0E0,0E0,1.1924093E2,0E0,1.8071973E2,4.058203E1,4.334908E1,0E0,0E0,6.9954224E0,9.388489E0,1.7852558E1,5.8427406E1,2.4261475E1,0E0,0E0,0E0,0E0,0E0,0E0,0E0,0E0,0E0,0E0,0E0,0E0,0E0,0E0,0E0,0E0,0E0,0E0,0E0,0E0,0E0,0E0,0E0,0E0,0E0,0E0,0E0,0E0,0E0,0E0],"parents":[2147483647,0,0,1,1,2,2,3,3,4,4,5,5,6,6,7,7,8,8,9,9,10,10,11,11,12,12,13,13,14,14,15,15,17,17,18,18,19,19,20,20,23,23,25,25,26,26,27,27,28,28,29,29,30,30,34,34,36,36,37,37,38,38,39,39,40,40,43,43,45,45,46,46,47,47,50,50,51,51,52,52,53,53,54,54],"right_children":[2,4,6,8,10,12,14,16,18,20,22,24,26,28,30,32,-1,34,36,38,40,-1,-1,42,-1,44,46,48,50,52,54,-1,-1,-1,56,-1,58,60,62,64,66,-1,-1,68,-1,70,72,74,-1,-1,76,78,80,82,84,-1,-1,-1,-1,-1,-1,-1,-1,-1,-1,-1,-1,-1,-1,-1,-1,-1,-1,-1,-1,-1,-1,-1,-1,-1,-1,-1,-1,-1,-1],"split_conditions":[5.6180075E-2,1.028399E-1,1.0921215E4,1E0,2E0,1.9482154E-1,1E0,1E0,2E0,1E0,7.833963E-2,1.2409952E-1,2E0,1E0,1E0,5.250176E4,9.566863E-1,4.8906498E-2,6.0454727E4,1E0,1.531552E-1,-2.9712E-1,-1.063556E-1,1.2552807E-1,-2.8531265E-1,1E0,3E0,8.20338E-2,4.4960656E4,9.073931E-2,2E0,-2.521684E-1,1.432253E-1,-1.0307103E-1,2.9830458E-2,-3.214914E-1,2.6378604E-2,5.538054E4,4.6806373E-2,2.759055E-2,1E0,1.4462529E-1,-1.0124474E-1,1E0,-1.1705844E0,1E0,6.112852E-2,6.958923E-2,1.6861527E-1,3.286823E-1,5.8020797E4,2.8011695E-1,7.834449E-2,1.3038988E4,7.354341E4,6.2827903E-1,2.1257554E-1,3.9503917E-1,1.440678E-1,-4.6303865E-2,2.0685034E-1,-2.3215829E-1,-4.63912E-2,1.1673136E-1,-1.016832E-1,2.866588E-1,1.2421284E-1,-6.256952E-2,-4.9536592E-1,-7.9812455E-1,-1.1012635E0,-4.714926E-1,-1.1159672E0,-2.338394E-1,7.1205996E-2,9.0117835E-2,2.7344602E-1,-2.6989248E-1,-1.4275548E-1,4.1524354E-2,-2.2247334E-1,3.6432114E-1,5.345482E-3,-2.3605497E-1,4.299059E-2],"split_indices":[15,9,10,6,6,9,6,12,6,12,14,9,6,12,12,10,0,11,10,6,9,0,0,15,0,13,6,14,10,11,6,0,0,0,14,0,9,10,15,11,6,0,0,1,0,13,14,11,0,0,10,9,15,10,10,0,0,0,0,0,0,0,0,0,0,0,0,0,0,0,0,0,0,0,0,0,0,0,0,0,0,0,0,0,0],"split_type":[0,0,0,0,0,0,0,0,0,0,0,0,0,0,0,0,0,0,0,0,0,0,0,0,0,0,0,0,0,0,0,0,0,0,0,0,0,0,0,0,0,0,0,0,0,0,0,0,0,0,0,0,0,0,0,0,0,0,0,0,0,0,0,0,0,0,0,0,0,0,0,0,0,0,0,0,0,0,0,0,0,0,0,0,0],"sum_hessian":[1.28E3,5.96E2,6.84E2,5.3E2,6.6E1,4.04E2,2.8E2,3.79E2,1.51E2,4.3E1,2.3E1,9E0,3.95E2,4.6E1,2.34E2,6E0,3.73E2,1.16E2,3.5E1,1.6E1,2.7E1,1.9E1,4E0,6E0,3E0,6.9E1,3.26E2,2.2E1,2.4E1,1.23E2,1.11E2,3E0,3E0,3E0,1.13E2,7E0,2.8E1,7E0,9E0,7E0,2E1,3E0,3E0,3.1E1,3.8E1,1.17E2,2.09E2,1.8E1,4E0,1.3E1,1.1E1,1.14E2,9E0,5.3E1,5.8E1,1.09E2,4E0,9E0,1.9E1,4E0,3E0,6E0,3E0,3E0,4E0,9E0,1.1E1,2.3E1,8E0,5.6E1,6.1E1,3E0,2.06E2,1.1E1,7E0,5E0,6E0,1.04E2,1E1,4E0,5E0,4E0,4.9E1,5.5E1,3E0],"tree_param":{"num_deleted":"0","num_feature":"16","num_nodes":"85","size_leaf_vector":"1"}},{"base_weights":[2.7813444E-1,6.3725457E0,-5.816716E0,7.4951386E0,-3.960325E-1,-1.9232737E0,-9.230769E0,7.737043E0,-9.5614505E-1,2.6013178E-1,-1.6744193E0,-1.3720638E0,-1.0390801E0,-8.303525E0,-9.887783E-1,8.108648E0,4.585952E0,1.754055E0,-2.7576706E0,1.51976E0,-7.1901375E-1,-3.248873E-1,-1.1665955E0,-9.926648E-1,-2.717895E0,-6.694769E0,-9.620201E0,8.325719E0,4.3769345E0,4.9836607E0,3.0853271E-2,3.599844E-2,2.709612E-1,-1.5408547E-1,-3.3120722E-1,2.437669E0,3.4372947E-1,-1.0928675E0,2.4515696E-1,-1.8927858E0,1.11968614E-1,-5.533869E-1,-2.0316598E0,-2.2680402E0,-8.5613155E-1,-3.9515433E0,-8.584819E0,-5.0915784E-1,-9.7961867E-1,8.5023224E-1,5.025752E-1,4.7460347E-1,9.758244E-2,7.565084E-1,4.4263774E-1,3.268702E-1,6.463363E-2,-1.4024487E-1,1.00782774E-1,-1.9195472E-1,6.5984346E-2,-5.257371E-2,-2.4663773E-1,1.1275705E-1,-1.1291473E-1,4.8105735E-3,-1.4909266E-1,-1.5377712E-2,-2.2556496E-1,-2.4109268E-1,-6.27868E-2,-1.3989605E-1,-6.410863E-1,-4.3471882E-1,-9.5083773E-1],"categories":[],"categories_nodes":[],"categories_segments":[],"categories_sizes":[],"default_left":[0,0,0,0,0,0,0,0,0,0,0,0,0,0,0,0,0,0,0,0,0,0,0,0,0,0,0,0,0,0,0,0,0,0,0,0,0,0,0,0,0,0,0,0,0,0,0,0,0,0,0,0,0,0,0,0,0,0,0,0,0,0,0,0,0,0,0,0,0,0,0,0,0,0,0],"id":16,"left_children":[1,3,5,7,9,11,13,15,17,19,21,23,-1,25,-1,27,29,31,33,35,37,-1,39,41,43,45,47,49,51,53,-1,-1,-1,-1,-1,55,57,59,-1,61,63,65,67,69,-1,71,73,-1,-1,-1,-1,-1,-1,-1,-1,-1,-1,-1,-1,-1,-1,-1,-1,-1,-1,-1,-1,-1,-1,-1,-1,-1,-1,-1,-1],"loss_changes":[4.702489E4,4.8127324E3,8.396346E3,1.1175059E3,7.676926E1,1.3719564E3,1.23203125E2,5.8108203E2,8.295702E1,7.632765E1,2.0995773E1,1.4027197E2,0E0,2.4485352E2,0E0,3.4508984E2,9.713013E1,8.349379E0,1.6426239E0,2.8308308E1,4.416594E1,0E0,2.3423954E1,9.928534E1,1.4093274E2,3.2383008E2,1.2285156E1,2.1602734E2,3.0518555E1,4.2759033E1,0E0,0E0,0E0,0E0,0E0,2.021717E1,1.6488667E1,4.7632385E1,0E0,1.1249371E1,1.3877989E1,8.804373E1,2.6993835E1,1.2079041E1,0E0,1.7935992E2,1.1521338E2,0E0,0E0,0E0,0E0,0E0,0E0,0E0,0E0,0E0,0E0,0E0,0E0,0E0,0E0,0E0,0E0,0E0,0E0,0E0,0E0,0E0,0E0,0E0,0E0,0E0,0E0,0E0,0E0],"parents":[2147483647,0,0,1,1,2,2,3,3,4,4,5,5,6,6,7,7,8,8,9,9,10,10,11,11,13,13,15,15,16,16,17,17,18,18,19,19,20,20,22,22,23,23,24,24,25,25,26,26,27,27,28,28,29,29,35,35,36,36,37,37,39,39,40,40,41,41,42,42,43,43,45,45,46,46],"right_children":[2,4,6,8,10,12,14,16,18,20,22,24,-1,26,-1,28,30,32,34,36,38,-1,40,42,44,46,48,50,52,54,-1,-1,-1,-1,-1,56,58,60,-1,62,64,66,68,70,-1,72,74,-1,-1,-1,-1,-1,-1,-1,-1,-1,-1,-1,-1,-1,-1,-1,-1,-1,-1,-1,-1,-1,-1,-1,-1,-1,-1,-1,-1],"split_conditions":[4.101507E-1,3.0047333E-2,1.5730007E-1,5.1447526E-2,1E0,1E0,1E0,1E0,1E0,3.5145727E-1,5.757504E-2,1E0,-1.0390801E0,5.52372E-1,-9.887783E-1,1E0,1E0,1.8302025E-1,1.13302104E-1,9.988586E-2,4.0494943E-1,-3.248873E-1,7.98443E-2,1E0,9.828445E-2,1E0,2.2681622E-1,1E0,1E0,1.2473665E-1,3.0853271E-2,3.599844E-2,2.709612E-1,-1.5408547E-1,-3.3120722E-1,6.727754E-2,2.8821504E-2,8.5729554E-2,2.4515696E-1,4.13446E-2,1E0,1E0,4.4626302E-1,1.377228E-1,-8.5613155E-1,1E0,6.539641E-1,-5.0915784E-1,-9.7961867E-1,8.5023224E-1,5.025752E-1,4.7460347E-1,9.758244E-2,7.565084E-1,4.4263774E-1,3.268702E-1,6.463363E-2,-1.4024487E-1,1.00782774E-1,-1.9195472E-1,6.5984346E-2,-5.257371E-2,-2.4663773E-1,1.1275705E-1,-1.1291473E-1,4.8105735E-3,-1.4909266E-1,-1.5377712E-2,-2.2556496E-1,-2.4109268E-1,-6.27868E-2,-1.3989605E-1,-6.410863E-1,-4.3471882E-1,-9.5083773E-1],"split_indices":[7,14,15,15,1,13,13,3,4,7,15,5,0,15,0,1,5,9,9,15,7,0,14,1,14,1,9,5,5,7,0,0,0,0,0,11,11,11,0,14,2,4,7,15,0,0,7,0,0,0,0,0,0,0,0,0,0,0,0,0,0,0,0,0,0,0,0,0,0,0,0,0,0,0,0],"split_type":[0,0,0,0,0,0,0,0,0,0,0,0,0,0,0,0,0,0,0,0,0,0,0,0,0,0,0,0,0,0,0,0,0,0,0,0,0,0,0,0,0,0,0,0,0,0,0,0,0,0,0,0,0,0,0,0,0,0,0,0,0,0,0,0,0,0,0,0,0,0,0,0,0,0,0],"sum_hessian":[1.264E3,6.32E2,6.32E2,5.42E2,9E1,2.96E2,3.36E2,5.27E2,1.5E1,6E1,3E1,2.79E2,1.7E1,1.45E2,1.91E2,4.7E2,5.7E1,6E0,9E0,2.6E1,3.4E1,6E0,2.4E1,2.19E2,6E1,6.8E1,7.7E1,4.43E2,2.7E1,5.2E1,5E0,3E0,3E0,4E0,5E0,1.4E1,1.2E1,3.1E1,3E0,1.5E1,9E0,1.55E2,6.4E1,5.7E1,3E0,2.9E1,3.9E1,4E0,7.3E1,4.19E2,2.4E1,2.4E1,3E0,7E0,4.5E1,9E0,5E0,3E0,9E0,2.1E1,1E1,5E0,1E1,5E0,4E0,9.5E1,6E1,7E0,5.7E1,5.2E1,5E0,1.5E1,1.4E1,8E0,3.1E1],"tree_param":{"num_deleted":"0","num_feature":"16","num_nodes":"75","size_leaf_vector":"1"}},{"base_weights":[-7.620771E-2,6.006868E0,-5.031072E0,6.7312007E0,-7.746064E-1,-1.4357039E0,-8.317992E0,7.106799E0,3.3861406E0,1.6826783E-1,-9.9598753E-1,-1.0888097E0,-9.3364966E-1,-6.7367435E0,-8.5526174E-1,7.3675227E0,3.0981035E0,-3.0975395E-1,3.9667857E0,-5.1223665E-1,-1.8092266E0,-9.481907E-1,-4.991078E0,-4.976163E0,-8.583414E-1,7.5871735E0,5.014282E0,5.4240537E0,1.6639258E0,5.0343885E0,1.9599396E0,-2.1239386E0,-1.5723618E-2,-2.1743352E0,1.0351467E-2,-5.5523705E-1,-1.9007233E0,-2.0472903E0,-9.6308845E-1,-1.8873413E0,-7.045488E0,7.690684E-1,5.261819E-1,3.4587556E-1,5.635137E-1,2.8504473E-1,6.487479E-1,2.4584983E-1,-5.9982616E-2,6.52002E-1,3.6747453E-1,-5.5451967E-2,2.4660583E-1,-8.8842206E-2,-2.6875642E-1,-1.3405387E-1,9.788704E-2,-1.07838385E-1,-2.5744602E-1,-1.5816255E-4,-1.343577E-1,5.5779953E-2,-2.0201705E-1,-3.4054214E-1,1.6219616E-2,-5.083071E-1,1.5780084E-1,-3.512859E-1,-9.795284E-1],"categories":[],"categories_nodes":[],"categories_segments":[],"categories_sizes":[],"default_left":[0,0,0,0,0,0,0,0,0,0,0,0,0,0,0,0,0,0,0,0,0,0,0,0,0,0,0,0,0,0,0,0,0,0,0,0,0,0,0,0,0,0,0,0,0,0,0,0,0,0,0,0,0,0,0,0,0,0,0,0,0,0,0,0,0,0,0,0,0],"id":17,"left_children":[1,3,5,7,9,11,13,15,17,-1,19,21,-1,23,-1,25,27,-1,29,31,33,35,37,39,-1,41,43,45,47,49,51,53,55,57,-1,59,61,63,-1,65,67,-1,-1,-1,-1,-1,-1,-1,-1,-1,-1,-1,-1,-1,-1,-1,-1,-1,-1,-1,-1,-1,-1,-1,-1,-1,-1,-1,-1],"loss_changes":[3.8339195E4,2.8099922E3,8.272258E3,6.242383E2,3.213972E1,9.107226E2,7.816797E1,4.6108398E2,2.1558203E2,0E0,1.9530315E1,1.7250833E2,0E0,1.26350586E2,0E0,1.8628711E2,9.104956E1,0E0,9.7258545E1,2.717446E1,1.3493881E1,1.1610089E2,1.3052744E2,1.7206427E2,0E0,5.4609375E1,1.913971E1,1.1612976E1,3.7448967E1,4.0678223E1,2.5547157E1,3.1832542E0,3.6888847E1,4.2400284E0,0E0,9.733041E1,2.785022E1,2.4558529E1,0E0,1.5198727E2,1.3072876E2,0E0,0E0,0E0,0E0,0E0,0E0,0E0,0E0,0E0,0E0,0E0,0E0,0E0,0E0,0E0,0E0,0E0,0E0,0E0,0E0,0E0,0E0,0E0,0E0,0E0,0E0,0E0,0E0],"parents":[2147483647,0,0,1,1,2,2,3,3,4,4,5,5,6,6,7,7,8,8,10,10,11,11,13,13,15,15,16,16,18,18,19,19,20,20,21,21,22,22,23,23,25,25,26,26,27,27,28,28,29,29,30,30,31,31,32,32,33,33,35,35,36,36,37,37,39,39,40,40],"right_children":[2,4,6,8,10,12,14,16,18,-1,20,22,-1,24,-1,26,28,-1,30,32,34,36,38,40,-1,42,44,46,48,50,52,54,56,58,-1,60,62,64,-1,66,68,-1,-1,-1,-1,-1,-1,-1,-1,-1,-1,-1,-1,-1,-1,-1,-1,-1,-1,-1,-1,-1,-1,-1,-1,-1,-1,-1,-1],"split_conditions":[1.5056084E-1,5.44802E-2,1.5730007E-1,1E0,6.3141614E-2,1E0,3.0890977E-1,1E0,5.100079E-2,1.6826783E-1,1E0,3.993366E-1,-9.3364966E-1,1E0,-8.5526174E-1,1E0,5.9723083E-2,-3.0975395E-1,1.9983932E-2,1.0847881E-1,2.1415773E-1,1E0,1E0,1E0,-8.583414E-1,1E0,3.425547E-2,2.0767165E-2,3.9834682E-2,2.2761518E-2,1.8024215E-2,8.8515565E-2,1.6074042E-1,4.1525695E-2,1.0351467E-2,1E0,1.6780213E-1,2.2873303E-1,-9.6308845E-1,4.916678E-1,1E0,7.690684E-1,5.261819E-1,3.4587556E-1,5.635137E-1,2.8504473E-1,6.487479E-1,2.4584983E-1,-5.9982616E-2,6.52002E-1,3.6747453E-1,-5.5451967E-2,2.4660583E-1,-8.8842206E-2,-2.6875642E-1,-1.3405387E-1,9.788704E-2,-1.07838385E-1,-2.5744602E-1,-1.5816255E-4,-1.343577E-1,5.5779953E-2,-2.0201705E-1,-3.4054214E-1,1.6219616E-2,-5.083071E-1,1.5780084E-1,-3.512859E-1,-9.795284E-1],"split_indices":[8,15,15,4,15,13,15,1,11,0,3,8,0,13,0,3,8,0,14,8,9,1,0,3,0,5,9,8,15,15,15,15,9,11,0,4,8,14,0,9,4,0,0,0,0,0,0,0,0,0,0,0,0,0,0,0,0,0,0,0,0,0,0,0,0,0,0,0,0],"split_type":[0,0,0,0,0,0,0,0,0,0,0,0,0,0,0,0,0,0,0,0,0,0,0,0,0,0,0,0,0,0,0,0,0,0,0,0,0,0,0,0,0,0,0,0,0,0,0,0,0,0,0,0,0,0,0,0,0,0,0,0,0,0,0,0,0,0,0,0,0],"sum_hessian":[1.27E3,5.7E2,7E2,5.15E2,5.5E1,3.35E2,3.65E2,4.62E2,5.3E1,4E0,5.1E1,3.22E2,1.3E1,5.1E1,3.14E2,4.33E2,2.9E1,4E0,4.9E1,3.3E1,1.8E1,3.12E2,1E1,2.8E1,2.3E1,3.94E2,3.9E1,1E1,1.9E1,3.1E1,1.8E1,7E0,2.6E1,1.5E1,3E0,2.22E2,9E1,7E0,3E0,1.2E1,1.6E1,3.75E2,1.9E1,1.3E1,2.6E1,4E0,6E0,1.4E1,5E0,1.3E1,1.8E1,3E0,1.5E1,3E0,4E0,1.1E1,1.5E1,5E0,1E1,1.31E2,9.1E1,4E0,8.6E1,4E0,3E0,6E0,6E0,8E0,8E0],"tree_param":{"num_deleted":"0","num_feature":"16","num_nodes":"69","size_leaf_vector":"1"}},{"base_weights":[-8.002698E-2,5.307455E0,-4.561807E0,5.949194E0,-1.1012607E0,-1.505758E0,-7.510914E0,6.865191E0,3.7234094E0,-2.3998713E0,1.762352E-2,-1.0887414E0,-8.6255306E-1,-5.595411E0,-7.826461E0,7.2835884E0,5.6895823E0,4.129438E0,-1.526886E0,-2.7891653E0,3.4121227E-2,1.178442E0,-1.5910193E0,9.362974E-1,-1.439235E0,-1.085308E0,-8.6621904E-1,-7.142168E0,-8.188433E0,7.40885E0,5.6752987E0,5.8595977E0,1.18536375E-1,4.6788507E0,1.1416373E0,1.725878E-3,-3.0557856E-1,-9.9871635E-2,-3.0193036E0,2.160327E0,-3.1895494E-1,-6.482964E-2,-1.9379744E-1,-1.7708365E0,1.3552192E0,-2.1473103E0,-5.937566E-1,1.4715132E0,-2.5470467E0,-3.8216007E0,-7.42745E0,-8.863937E-1,-7.648492E-1,7.1482885E-1,8.3564585E-1,3.992668E-1,7.025207E-1,6.795067E-1,5.051093E-1,5.726267E-1,4.1616336E-1,2.5242424E-1,-4.5132127E-2,-1.07627295E-1,1.0792933E-1,-3.3219764E-1,-1.8098494E-1,4.906979E-2,2.7251005E-1,5.398474E-2,-9.422058E-2,1.0736751E-2,-3.2063314E-1,1.7940329E-1,-2.7226869E-2,-1.9259009E-1,-4.5699295E-1,5.063621E-2,-1.5282331E-1,2.964107E-1,2.3119831E-2,4.5193505E-2,-3.3344534E-1,-1.3670133E-1,-6.493703E-1,-4.3975297E-1,-7.6363117E-1],"categories":[],"categories_nodes":[],"categories_segments":[],"categories_sizes":[],"default_left":[0,0,0,0,0,0,0,0,0,0,0,0,0,0,0,0,0,0,0,0,0,0,0,0,0,0,0,0,0,0,0,0,0,0,0,0,0,0,0,0,0,0,0,0,0,0,0,0,0,0,0,0,0,0,0,0,0,0,0,0,0,0,0,0,0,0,0,0,0,0,0,0,0,0,0,0,0,0,0,0,0,0,0,0,0,0,0],"id":18,"left_children":[1,3,5,7,9,11,13,15,17,19,21,23,-1,25,27,29,31,33,35,37,-1,39,41,43,45,47,-1,49,51,53,55,57,-1,59,61,63,-1,-1,65,67,69,-1,-1,71,73,75,77,79,81,83,85,-1,-1,-1,-1,-1,-1,-1,-1,-1,-1,-1,-1,-1,-1,-1,-1,-1,-1,-1,-1,-1,-1,-1,-1,-1,-1,-1,-1,-1,-1,-1,-1,-1,-1,-1,-1],"loss_changes":[3.105119E4,2.4083828E3,6.315547E3,1.0570469E3,7.850402E1,1.0179047E3,1.7199023E2,1.4301172E2,3.4099268E2,2.762886E1,5.789519E1,2.3414978E2,0E0,7.3749963E2,1.6814453E1,1.2950195E1,7.193042E1,2.3432275E2,2.80504E1,6.049698E0,0E0,2.7153933E1,2.9956932E0,5.7969677E1,1.6635052E2,8.970831E1,0E0,7.866016E1,2.2333984E0,1.9941406E0,2.6464233E1,4.05542E1,0E0,4.2803467E1,5.399762E1,9.292929E0,0E0,0E0,9.4303894E-1,9.035385E0,4.790642E0,0E0,0E0,1.9217321E1,3.1197502E1,7.2730225E1,1.3339038E2,1.5976282E1,3.6928246E1,6.3271027E1,3.1601074E1,0E0,0E0,0E0,0E0,0E0,0E0,0E0,0E0,0E0,0E0,0E0,0E0,0E0,0E0,0E0,0E0,0E0,0E0,0E0,0E0,0E0,0E0,0E0,0E0,0E0,0E0,0E0,0E0,0E0,0E0,0E0,0E0,0E0,0E0,0E0,0E0],"parents":[2147483647,0,0,1,1,2,2,3,3,4,4,5,5,6,6,7,7,8,8,9,9,10,10,11,11,13,13,14,14,15,15,16,16,17,17,18,18,19,19,21,21,22,22,23,23,24,24,25,25,27,27,28,28,29,29,30,30,31,31,33,33,34,34,35,35,38,38,39,39,40,40,43,43,44,44,45,45,46,46,47,47,48,48,49,49,50,50],"right_children":[2,4,6,8,10,12,14,16,18,20,22,24,-1,26,28,30,32,34,36,38,-1,40,42,44,46,48,-1,50,52,54,56,58,-1,60,62,64,-1,-1,66,68,70,-1,-1,72,74,76,78,80,82,84,86,-1,-1,-1,-1,-1,-1,-1,-1,-1,-1,-1,-1,-1,-1,-1,-1,-1,-1,-1,-1,-1,-1,-1,-1,-1,-1,-1,-1,-1,-1,-1,-1,-1,-1,-1,-1],"split_conditions":[5.1447526E-2,3.146169E-2,1.7103183E-1,1E0,1E0,1E0,2E0,3.280826E-1,3.9907283E-1,8.673573E-2,2E0,1E0,-8.6255306E-1,1E0,3E0,4.4439387E-2,3.999221E-1,2E0,1E0,7.405235E-2,3.4121227E-2,5.195164E-1,4.392744E-1,1.8378645E-2,1E0,5.1605594E-1,-8.6621904E-1,5.394104E-1,1E0,2.3941282E-2,4.6516813E-2,1.6975118E-2,1.18536375E-1,1.8342267E-1,2.6632497E-1,1E0,-3.0557856E-1,-9.9871635E-2,5.2294254E-1,1.3947724E-1,1E0,-6.482964E-2,-1.9379744E-1,1.4669266E-2,5.831173E-1,9.742634E-2,2E0,6.091894E-1,2.4542488E-1,1E0,2.2610642E-1,-8.863937E-1,-7.648492E-1,7.1482885E-1,8.3564585E-1,3.992668E-1,7.025207E-1,6.795067E-1,5.051093E-1,5.726267E-1,4.1616336E-1,2.5242424E-1,-4.5132127E-2,-1.07627295E-1,1.0792933E-1,-3.3219764E-1,-1.8098494E-1,4.906979E-2,2.7251005E-1,5.398474E-2,-9.422058E-2,1.0736751E-2,-3.2063314E-1,1.7940329E-1,-2.7226869E-2,-1.9259009E-1,-4.5699295E-1,5.063621E-2,-1.5282331E-1,2.964107E-1,2.3119831E-2,4.5193505E-2,-3.3344534E-1,-1.3670133E-1,-6.493703E-1,-4.3975297E-1,-7.6363117E-1],"split_indices":[15,14,15,6,12,13,6,7,7,14,6,6,0,13,6,15,7,6,2,9,0,7,7,14,12,15,0,7,13,14,9,15,0,7,7,3,0,0,7,9,2,0,0,14,7,14,6,7,9,13,15,0,0,0,0,0,0,0,0,0,0,0,0,0,0,0,0,0,0,0,0,0,0,0,0,0,0,0,0,0,0,0,0,0,0,0,0],"split_type":[0,0,0,0,0,0,0,0,0,0,0,0,0,0,0,0,0,0,0,0,0,0,0,0,0,0,0,0,0,0,0,0,0,0,0,0,0,0,0,0,0,0,0,0,0,0,0,0,0,0,0,0,0,0,0,0,0,0,0,0,0,0,0,0,0,0,0,0,0,0,0,0,0,0,0,0,0,0,0,0,0,0,0,0,0,0,0],"sum_hessian":[1.284E3,5.83E2,7.01E2,5.3E2,5.3E1,3.45E2,3.56E2,3.74E2,1.56E2,2.4E1,2.9E1,3.27E2,1.8E1,5.3E1,3.03E2,2.72E2,1.02E2,1.45E2,1.1E1,2.1E1,3E0,1.7E1,1.2E1,4.8E1,2.79E2,2.2E1,3.1E1,1.12E2,1.91E2,2.49E2,2.3E1,9.8E1,4E0,1.22E2,2.3E1,6E0,5E0,3E0,1.8E1,1E1,7E0,4E0,8E0,6E0,4.2E1,1.51E2,1.28E2,8E0,1.4E1,1E1,1.02E2,7.8E1,1.13E2,2.02E2,4.7E1,1.2E1,1.1E1,4.2E1,5.6E1,3.7E1,8.5E1,1.2E1,1.1E1,3E0,3E0,1.3E1,5E0,3E0,7E0,3E0,4E0,3E0,3E0,3.3E1,9E0,1.4E2,1.1E1,5.9E1,6.9E1,3E0,5E0,3E0,1.1E1,6E0,4E0,8E0,9.4E1],"tree_param":{"num_deleted":"0","num_feature":"16","num_nodes":"87","size_leaf_vector":"1"}},{"base_weights":[8.965817E-2,4.8145776E0,-4.2352157E0,5.4980264E0,-1.8867467E-1,-1.310964E0,-6.8199563E0,6.276162E0,3.4226577E0,8.147019E-1,-1.8083307E0,-9.943899E-1,-7.618364E-1,-4.995231E0,-7.121651E-1,6.8124956E-1,5.713548E0,4.0737267E0,5.656549E-1,1.2169678E0,-1.2984653E0,-2.465767E-1,-1.1992129E0,8.97498E-1,-1.3365079E0,-8.4831977E-1,-7.819723E-1,2.9556584E0,5.799148E0,4.2029467E0,-7.889929E-2,1.781039E0,-1.9216789E0,2.7201575E-1,1.8356018E0,-1.7029773E-1,-7.151627E-2,-1.6514535E0,2.1645507E-2,1.6101966E0,-8.974484E-1,-7.1674347E-1,-1.2394205E0,1.3046726E0,-2.9306188E0,4.331491E-1,4.96953E-2,3.685191E-1,5.871424E-1,4.4220853E-1,1.6493939E-1,2.9732105E-1,5.3533416E-2,-1.2975693E-2,-2.6711088E-1,7.6297544E-2,-1.514347E-1,2.207936E-1,-5.780535E-2,-2.1232156E-1,-7.4719496E-2,2.1407412E-1,-3.816657E-2,-1.5136804E-1,1.7647427E-2,-7.56301E-2,-1.6274157E-1,2.2791629E-1,-5.1544633E-2,-3.785011E-2,-4.1593647E-1],"categories":[],"categories_nodes":[],"categories_segments":[],"categories_sizes":[],"default_left":[0,0,0,0,0,0,0,0,0,0,0,0,0,0,0,0,0,0,0,0,0,0,0,0,0,0,0,0,0,0,0,0,0,0,0,0,0,0,0,0,0,0,0,0,0,0,0,0,0,0,0,0,0,0,0,0,0,0,0,0,0,0,0,0,0,0,0,0,0,0,0],"id":19,"left_children":[1,3,5,7,9,11,13,15,17,19,21,23,-1,25,-1,-1,27,29,31,33,35,-1,37,39,41,43,-1,45,47,49,-1,51,53,55,57,-1,-1,59,-1,61,63,-1,65,67,69,-1,-1,-1,-1,-1,-1,-1,-1,-1,-1,-1,-1,-1,-1,-1,-1,-1,-1,-1,-1,-1,-1,-1,-1,-1,-1],"loss_changes":[2.634026E4,2.1074287E3,5.077885E3,8.538047E2,1.2335761E2,6.253972E2,1.6095898E2,7.966406E1,2.7671155E2,4.1532784E1,8.65625E0,1.9731598E2,0E0,6.258639E2,0E0,0E0,2.960254E1,7.9976074E1,9.109151E1,2.2883865E1,6.6971684E-1,0E0,1.1241247E1,6.1570084E1,1.3660675E2,1.0693649E2,0E0,2.4909584E1,7.54541E0,5.9296387E1,0E0,2.8110218E1,1.3082603E1,1.6064955E1,2.2844788E1,0E0,0E0,3.959278E0,0E0,3.674729E1,9.532123E0,0E0,4.6381012E1,2.245904E1,3.605652E1,0E0,0E0,0E0,0E0,0E0,0E0,0E0,0E0,0E0,0E0,0E0,0E0,0E0,0E0,0E0,0E0,0E0,0E0,0E0,0E0,0E0,0E0,0E0,0E0,0E0,0E0],"parents":[2147483647,0,0,1,1,2,2,3,3,4,4,5,5,6,6,7,7,8,8,9,9,10,10,11,11,13,13,16,16,17,17,18,18,19,19,20,20,22,22,23,23,24,24,25,25,27,27,28,28,29,29,31,31,32,32,33,33,34,34,37,37,39,39,40,40,42,42,43,43,44,44],"right_children":[2,4,6,8,10,12,14,16,18,20,22,24,-1,26,-1,-1,28,30,32,34,36,-1,38,40,42,44,-1,46,48,50,-1,52,54,56,58,-1,-1,60,-1,62,64,-1,66,68,70,-1,-1,-1,-1,-1,-1,-1,-1,-1,-1,-1,-1,-1,-1,-1,-1,-1,-1,-1,-1,-1,-1,-1,-1,-1,-1],"split_conditions":[5.6180075E-2,1.5056084E-1,1.5730007E-1,1E0,2E0,1E0,2E0,2.5657555E-1,2E0,6.30154E-1,1E0,1E0,-7.618364E-1,1E0,-7.121651E-1,6.8124956E-1,6.497124E-2,3.9907283E-1,6.964384E-2,3.9597732E-1,1.978477E-1,-2.465767E-1,6.789056E-2,5.6115055E-1,3.9054243E3,7.346121E-1,-7.819723E-1,5.8635183E-2,2.6360095E-1,1.4037892E-1,-7.889929E-2,2.6378604E-2,2.781046E-1,2.237371E-1,1E0,-1.7029773E-1,-7.151627E-2,5.048739E-1,2.1645507E-2,6.685746E4,8.20338E-2,-7.1674347E-1,2E0,1.9498993E-2,4.678507E-1,4.331491E-1,4.96953E-2,3.685191E-1,5.871424E-1,4.4220853E-1,1.6493939E-1,2.9732105E-1,5.3533416E-2,-1.2975693E-2,-2.6711088E-1,7.6297544E-2,-1.514347E-1,2.207936E-1,-5.780535E-2,-2.1232156E-1,-7.4719496E-2,2.1407412E-1,-3.816657E-2,-1.5136804E-1,1.7647427E-2,-7.56301E-2,-1.6274157E-1,2.2791629E-1,-5.1544633E-2,-3.785011E-2,-4.1593647E-1],"split_indices":[15,8,15,6,6,13,6,7,6,7,4,6,0,13,0,0,11,7,9,7,8,0,14,7,10,7,0,9,7,8,0,9,7,9,1,0,0,7,0,10,14,0,6,11,15,0,0,0,0,0,0,0,0,0,0,0,0,0,0,0,0,0,0,0,0,0,0,0,0,0,0],"split_type":[0,0,0,0,0,0,0,0,0,0,0,0,0,0,0,0,0,0,0,0,0,0,0,0,0,0,0,0,0,0,0,0,0,0,0,0,0,0,0,0,0,0,0,0,0,0,0,0,0,0,0,0,0,0,0,0,0,0,0,0,0,0,0,0,0,0,0,0,0,0,0],"sum_hessian":[1.287E3,6.15E2,6.72E2,5.41E2,7.4E1,3.16E2,3.56E2,3.92E2,1.49E2,4.6E1,2.8E1,3.02E2,1.4E1,5.3E1,3.03E2,1.95E2,1.97E2,1.21E2,2.8E1,3.9E1,7E0,1.2E1,1.6E1,4.6E1,2.56E2,2.2E1,3.1E1,7E0,1.9E2,1.18E2,3E0,1.9E1,9E0,1.6E1,2.3E1,3E0,4E0,1.2E1,4E0,3.3E1,1.3E1,3E0,2.53E2,1.1E1,1.1E1,4E0,3E0,8E0,1.82E2,1.08E2,1E1,9E0,1E1,3E0,6E0,1.3E1,3E0,2E1,3E0,7E0,5E0,2.6E1,7E0,8E0,5E0,1.14E2,1.39E2,7E0,4E0,4E0,7E0],"tree_param":{"num_deleted":"0","num_feature":"16","num_nodes":"71","size_leaf_vector":"1"}},{"base_weights":[-7.377691E-2,4.237814E0,-3.9459426E0,4.914461E0,-3.004234E-1,-5.9477797E0,-9.7939956E-1,5.2574954E0,3.9937082E-1,1.4423429E0,-8.21251E-1,-1.0774617E0,-6.1172414E0,7.5263E-1,-1.3812498E0,5.6793637E0,3.892655E0,-1.9363372E0,1.2715577E0,-5.092335E-3,1.725513E0,-1.7478558E0,1.3101792E-1,1.0593424E-1,-1.6999413E0,3.0784322E-2,-6.1670713E0,-1.473817E-1,1.9329661E0,-1.982871E0,-6.936256E-1,-1.3394575E-1,5.7389274E0,4.179078E0,2.021507E0,-1.020324E-1,-2.3140128E-1,3.3584413E-1,8.033186E-1,2.6285142E-1,1.0761021E0,-2.5356083E0,-1.2144803E0,1.012751E0,-1.0749781E0,-8.573093E-2,-2.1793485E-1,-5.5646896E0,-6.6707724E-1,1.6770196E0,-7.4937457E-1,2.3835449E-1,1.4030175E0,-2.300808E0,-1.6586931E0,2.6768747E-1,-8.505079E-1,5.960127E-1,4.755652E-1,4.7261128E-1,2.9656062E-1,2.7464625E-1,-4.1267015E-2,2.2008084E-1,3.4390584E-2,3.6515333E-2,2.2289744E-1,-3.189349E-1,-9.82502E-2,-3.3470917E-2,-1.730131E-1,2.0638488E-1,6.0693566E-3,-1.6876239E-1,8.78542E-2,-5.8872765E-1,-3.036587E-1,3.5708633E-1,-1.10954E-1,-1.5738402E-1,1.9863294E-1,1.8512721E-1,3.155556E-2,-2.898977E-1,-1.7933069E-1,-1.2119283E-1,-2.2892983E-1,-1.0574829E-1,6.6374004E-2],"categories":[],"categories_nodes":[],"categories_segments":[],"categories_sizes":[],"default_left":[0,0,0,0,0,0,0,0,0,0,0,0,0,0,0,0,0,0,0,0,0,0,0,0,0,0,0,0,0,0,0,0,0,0,0,0,0,0,0,0,0,0,0,0,0,0,0,0,0,0,0,0,0,0,0,0,0,0,0,0,0,0,0,0,0,0,0,0,0,0,0,0,0,0,0,0,0,0,0,0,0,0,0,0,0,0,0,0,0],"id":20,"left_children":[1,3,5,7,9,11,13,15,17,19,21,23,25,27,29,31,33,35,37,-1,39,41,43,-1,45,-1,47,49,51,53,55,-1,57,59,61,-1,-1,-1,63,-1,65,67,69,71,73,-1,-1,75,-1,77,79,-1,81,83,85,-1,87,-1,-1,-1,-1,-1,-1,-1,-1,-1,-1,-1,-1,-1,-1,-1,-1,-1,-1,-1,-1,-1,-1,-1,-1,-1,-1,-1,-1,-1,-1,-1,-1],"loss_changes":[2.1770562E4,1.8961514E3,4.0739473E3,8.296221E2,7.470666E1,3.317959E2,1.945322E2,2.65208E2,8.191194E1,8.12199E0,5.581875E1,2.1752575E1,1.2868262E2,5.6587646E1,9.211841E1,1.6613477E2,5.6400757E1,1.4444695E0,2.5639748E1,0E0,6.554146E0,1.0365921E1,3.5116417E1,0E0,2.9791946E0,0E0,8.212402E1,3.5303288E1,2.147873E0,8.551788E0,5.885528E1,0E0,5.3435547E1,5.5020752E1,3.2897453E1,0E0,0E0,0E0,1.5293745E1,0E0,8.202047E0,9.050407E0,8.947655E0,1.8888138E1,1.823807E1,0E0,0E0,1.3299658E2,0E0,4.6180477E1,5.7258026E1,0E0,5.752802E0,1.2408417E1,1.4974655E1,0E0,3.2983253E1,0E0,0E0,0E0,0E0,0E0,0E0,0E0,0E0,0E0,0E0,0E0,0E0,0E0,0E0,0E0,0E0,0E0,0E0,0E0,0E0,0E0,0E0,0E0,0E0,0E0,0E0,0E0,0E0,0E0,0E0,0E0,0E0],"parents":[2147483647,0,0,1,1,2,2,3,3,4,4,5,5,6,6,7,7,8,8,9,9,10,10,11,11,12,12,13,13,14,14,15,15,16,16,17,17,18,18,20,20,21,21,22,22,24,24,26,26,27,27,28,28,29,29,30,30,32,32,33,33,34,34,38,38,40,40,41,41,42,42,43,43,44,44,47,47,49,49,50,50,52,52,53,53,54,54,56,56],"right_children":[2,4,6,8,10,12,14,16,18,20,22,24,26,28,30,32,34,36,38,-1,40,42,44,-1,46,-1,48,50,52,54,56,-1,58,60,62,-1,-1,-1,64,-1,66,68,70,72,74,-1,-1,76,-1,78,80,-1,82,84,86,-1,88,-1,-1,-1,-1,-1,-1,-1,-1,-1,-1,-1,-1,-1,-1,-1,-1,-1,-1,-1,-1,-1,-1,-1,-1,-1,-1,-1,-1,-1,-1,-1,-1],"split_conditions":[3.999221E-1,1.028399E-1,1.0921215E4,2E0,1E0,2.824229E-1,1E0,1E0,5.7266188E4,3.6476787E-2,1E0,1.3932157E-1,1.3947724E-1,1E0,1E0,1E0,3.6339727E-1,3.6077902E-1,1.2691939E-1,-5.092335E-3,1.9391608E-1,3.767696E4,2E0,1.0593424E-1,5.2294254E-1,3.0784322E-2,3E0,4.5916855E-1,2.4146044E-1,1.8065256E-1,1.3038988E4,-1.3394575E-1,3.4726384E-1,3.5636686E-2,7.2392724E-2,-1.020324E-1,-2.3140128E-1,3.3584413E-1,1.9327816E-2,2.6285142E-1,3.4386927E-1,1E0,5.316312E4,3.5507873E-1,3.6077902E-1,-8.573093E-2,-2.1793485E-1,1E0,-6.6707724E-1,8.96592E-2,2.4951082E-1,2.3835449E-1,4.80076E-1,2E0,1E0,2.6768747E-1,2.775235E-1,5.960127E-1,4.755652E-1,4.7261128E-1,2.9656062E-1,2.7464625E-1,-4.1267015E-2,2.2008084E-1,3.4390584E-2,3.6515333E-2,2.2289744E-1,-3.189349E-1,-9.82502E-2,-3.3470917E-2,-1.730131E-1,2.0638488E-1,6.0693566E-3,-1.6876239E-1,8.78542E-2,-5.8872765E-1,-3.036587E-1,3.5708633E-1,-1.10954E-1,-1.5738402E-1,1.9863294E-1,1.8512721E-1,3.155556E-2,-2.898977E-1,-1.7933069E-1,-1.2119283E-1,-2.2892983E-1,-1.0574829E-1,6.6374004E-2],"split_indices":[7,9,10,6,6,8,6,6,10,15,12,8,9,12,12,12,7,7,7,0,8,10,6,0,7,0,6,7,8,9,10,0,7,15,9,0,0,0,9,0,7,1,10,7,7,0,0,12,0,9,9,0,7,6,2,0,9,0,0,0,0,0,0,0,0,0,0,0,0,0,0,0,0,0,0,0,0,0,0,0,0,0,0,0,0,0,0,0,0],"split_type":[0,0,0,0,0,0,0,0,0,0,0,0,0,0,0,0,0,0,0,0,0,0,0,0,0,0,0,0,0,0,0,0,0,0,0,0,0,0,0,0,0,0,0,0,0,0,0,0,0,0,0,0,0,0,0,0,0,0,0,0,0,0,0,0,0,0,0,0,0,0,0,0,0,0,0,0,0,0,0,0,0,0,0,0,0,0,0,0,0],"sum_hessian":[1.302E3,6.16E2,6.86E2,5.36E2,8E1,4.09E2,2.77E2,4.98E2,3.8E1,1.8E1,6.2E1,1.4E1,3.95E2,5.2E1,2.25E2,3.78E2,1.2E2,1E1,2.8E1,3E0,1.5E1,3.1E1,3.1E1,3E0,1.1E1,3E0,3.92E2,3E1,2.2E1,1.19E2,1.06E2,3E0,3.75E2,1.03E2,1.7E1,4E0,6E0,4E0,2.4E1,5E0,1E1,1.1E1,2E1,1.8E1,1.3E1,5E0,6E0,1.84E2,2.08E2,7E0,2.3E1,1E1,1.2E1,5.7E1,6.2E1,4E0,1.02E2,3.02E2,7.3E1,6.9E1,3.4E1,1.3E1,4E0,5E0,1.9E1,7E0,3E0,7E0,4E0,8E0,1.2E1,8E0,1E1,1E1,3E0,1.62E2,2.2E1,4E0,3E0,1.8E1,5E0,8E0,4E0,2.4E1,3.3E1,3.8E1,2.4E1,9E1,1.2E1],"tree_param":{"num_deleted":"0","num_feature":"16","num_nodes":"89","size_leaf_vector":"1"}},{"base_weights":[-3.8010173E-2,3.82785E0,-3.4198792E0,4.359345E0,-5.4652965E-1,-1.0789241E0,-5.5934105E0,4.644025E0,6.124258E-1,-1.3654255E0,3.6621666E-1,-8.0490965E-1,-6.440403E-1,-4.3011637E0,-5.8253735E-1,5.0141473E0,3.4748366E0,-1.5592461E0,1.5212699E0,1.7734842E-1,-1.7151196E0,1.1638116E0,-7.423919E-1,1.0804101E0,-1.1704425E0,-2.5089204E-1,-6.593186E-1,5.4193854E0,4.5524135E0,4.5405164E0,2.8866246E0,-1.9921304E-3,-2.0701408E-1,3.3558923E-1,9.765307E-1,-2.0346293E0,4.1715853E-2,3.17707E-1,2.178571E-1,-2.241728E-1,-1.3959885E-1,2.2045912E-1,2.0003388E0,-1.735839E0,-5.089735E-1,8.765255E-1,-2.7920048E0,2.2291367E-1,5.474526E-1,5.0911653E-1,4.1088414E-1,3.4879836E-1,5.523904E-1,1.4258197E-1,3.1411847E-1,2.7417946E-1,5.7465136E-2,-1.320502E-1,-2.654435E-1,-1.2187554E-1,9.143776E-2,-1.0116297E-1,1.0130558E-1,2.67279E-1,-2.9962888E-2,5.657759E-2,2.170244E-1,-5.6302667E-1,-1.4939915E-1,2.8863272E-2,-1.2858404E-1,2.504818E-1,-1.0648693E-1,-3.4192237E-1,-1.4667848E-1],"categories":[],"categories_nodes":[],"categories_segments":[],"categories_sizes":[],"default_left":[0,0,0,0,0,0,0,0,0,0,0,0,0,0,0,0,0,0,0,0,0,0,0,0,0,0,0,0,0,0,0,0,0,0,0,0,0,0,0,0,0,0,0,0,0,0,0,0,0,0,0,0,0,0,0,0,0,0,0,0,0,0,0,0,0,0,0,0,0,0,0,0,0,0,0],"id":21,"left_children":[1,3,5,7,9,11,13,15,17,19,21,23,-1,25,-1,27,29,31,33,-1,35,37,39,41,43,45,-1,47,49,51,53,-1,-1,-1,55,57,-1,-1,59,61,-1,63,65,67,69,71,73,-1,-1,-1,-1,-1,-1,-1,-1,-1,-1,-1,-1,-1,-1,-1,-1,-1,-1,-1,-1,-1,-1,-1,-1,-1,-1,-1,-1],"loss_changes":[1.6839113E4,1.3996836E3,3.4895166E3,5.688926E2,4.983136E1,4.8256476E2,8.165625E1,1.9808301E2,7.934677E1,4.1459778E1,2.9159058E1,2.1972389E2,0E0,5.3677795E2,0E0,4.568164E1,6.399524E1,9.395958E0,2.4705818E1,0E0,2.2649841E1,3.5492416E1,4.428945E0,4.0695885E1,9.859848E1,6.547496E1,0E0,2.2099121E1,2.2574707E1,2.420465E1,2.6013977E1,0E0,0E0,0E0,1.4741154E1,8.888184E0,0E0,0E0,1.5123222E1,9.793216E0,0E0,3.651282E1,4.8656235E0,1.2627411E2,7.7205734E1,5.3245846E1,8.031502E-1,0E0,0E0,0E0,0E0,0E0,0E0,0E0,0E0,0E0,0E0,0E0,0E0,0E0,0E0,0E0,0E0,0E0,0E0,0E0,0E0,0E0,0E0,0E0,0E0,0E0,0E0,0E0,0E0],"parents":[2147483647,0,0,1,1,2,2,3,3,4,4,5,5,6,6,7,7,8,8,9,9,10,10,11,11,13,13,15,15,16,16,17,17,18,18,20,20,21,21,22,22,23,23,24,24,25,25,27,27,28,28,29,29,30,30,34,34,35,35,38,38,39,39,41,41,42,42,43,43,44,44,45,45,46,46],"right_children":[2,4,6,8,10,12,14,16,18,20,22,24,-1,26,-1,28,30,32,34,-1,36,38,40,42,44,46,-1,48,50,52,54,-1,-1,-1,56,58,-1,-1,60,62,-1,64,66,68,70,72,74,-1,-1,-1,-1,-1,-1,-1,-1,-1,-1,-1,-1,-1,-1,-1,-1,-1,-1,-1,-1,-1,-1,-1,-1,-1,-1,-1,-1],"split_conditions":[1.028399E-1,3.999221E-1,1.5730007E-1,2E0,1E0,1E0,2E0,1E0,7.136307E4,4.223757E-1,2E0,1E0,-6.440403E-1,1E0,-5.8253735E-1,2.584693E-1,1.8342267E-1,1E0,1.2691939E-1,1.7734842E-1,8.187844E-2,6.566807E-2,7.264476E-2,1E0,1E0,2.2746868E-2,-6.593186E-1,5.6265816E4,1.7247591E-2,6.3541695E-2,8.663474E-2,-1.9921304E-3,-2.0701408E-1,3.3558923E-1,7.76388E-2,4.8906498E-2,4.1715853E-2,3.17707E-1,3.767696E4,4.4339128E-2,-1.3959885E-1,2.2547513E-2,3.171917E-1,7.5857666E3,2E0,7.346121E-1,2.581035E-2,2.2291367E-1,5.474526E-1,5.0911653E-1,4.1088414E-1,3.4879836E-1,5.523904E-1,1.4258197E-1,3.1411847E-1,2.7417946E-1,5.7465136E-2,-1.320502E-1,-2.654435E-1,-1.2187554E-1,9.143776E-2,-1.0116297E-1,1.0130558E-1,2.67279E-1,-2.9962888E-2,5.657759E-2,2.170244E-1,-5.6302667E-1,-1.4939915E-1,2.8863272E-2,-1.2858404E-1,2.504818E-1,-1.0648693E-1,-3.4192237E-1,-1.4667848E-1],"split_indices":[9,7,15,6,12,13,6,6,10,7,6,6,0,13,0,7,7,1,7,0,11,9,11,12,12,11,0,10,15,9,11,0,0,0,11,11,0,0,10,11,0,11,7,10,6,7,11,0,0,0,0,0,0,0,0,0,0,0,0,0,0,0,0,0,0,0,0,0,0,0,0,0,0,0,0],"split_type":[0,0,0,0,0,0,0,0,0,0,0,0,0,0,0,0,0,0,0,0,0,0,0,0,0,0,0,0,0,0,0,0,0,0,0,0,0,0,0,0,0,0,0,0,0,0,0,0,0,0,0,0,0,0,0,0,0,0,0,0,0,0,0,0,0,0,0,0,0,0,0,0,0,0,0],"sum_hessian":[1.286E3,6E2,6.86E2,5.35E2,6.5E1,3.31E2,3.55E2,4.97E2,3.8E1,3.4E1,3.1E1,3.16E2,1.5E1,5.7E1,2.98E2,3.75E2,1.22E2,1.1E1,2.7E1,3E0,3.1E1,1.8E1,1.3E1,5.1E1,2.65E2,2.1E1,3.6E1,1.94E2,1.81E2,4.1E1,8.1E1,3E0,8E0,5E0,2.2E1,2.7E1,4E0,5E0,1.3E1,8E0,5E0,2.7E1,2.4E1,1.42E2,1.23E2,1.5E1,6E0,4E0,1.9E2,7.7E1,1.04E2,2.2E1,1.9E1,1.3E1,6.8E1,3E0,1.9E1,1.4E1,1.3E1,4E0,9E0,5E0,3E0,4E0,2.3E1,3E0,2.1E1,7E0,1.35E2,6.1E1,6.2E1,8E0,7E0,3E0,3E0],"tree_param":{"num_deleted":"0","num_feature":"16","num_nodes":"75","size_leaf_vector":"1"}},{"base_weights":[8.139823E-2,3.4011793E0,-3.0845776E0,3.9326959E0,-2.682963E-1,-4.7752247E0,-5.9794736E-1,4.5058713E0,2.534503E0,-1.0382488E0,5.480203E-1,3.1095552E-1,-4.9256496E0,5.9709614E-3,-1.3067274E0,4.5661144E0,6.3487136E-1,2.961735E0,4.2989105E-1,9.0128E-1,-1.3964902E0,1.4608837E0,-5.981473E-1,-1.798567E0,2.7202395E-1,-4.266018E0,-5.522164E0,3.6283132E-1,-1.1487529E0,-1.0063741E0,-1.6052955E0,4.827968E0,3.8560522E0,1.4214592E-1,-3.1043435E-2,4.1188893E0,2.467697E0,2.5423903E0,-7.045766E-1,1.286068E-2,1.4486332E-1,-3.5848308E-1,-2.1570716E0,3.0868917E0,4.962873E-1,-1.0558649E0,1.2678309E-1,-2.3466854E-1,-8.00807E-2,-2.630119E0,-5.769518E-1,-6.2161016E-1,-5.018272E-1,6.827012E-1,-1.3099867E0,-6.0839504E-1,-2.8288665E-1,-2.936827E-1,-1.2849245E0,-7.860383E-2,-1.6505862E0,5.0110507E-1,3.5396105E-1,3.430133E-1,4.8686606E-1,4.9190053E-1,1.7077866E-1,2.9613543E-1,1.6829233E-1,3.211525E-1,7.358074E-2,-2.0071629E-1,5.101424E-3,-1.1856911E-1,1.2178122E-1,-2.637957E-1,-1.8682403E-2,9.6496046E-2,4.9675828E-1,1.2115406E-1,-1.7735444E-1,-1.4697824E-1,-5.099645E-2,-9.490442E-2,-4.3278313E-1,-1.1383097E-2,1.02757394E-1,1.3034417E-1,-2.1497837E-1,6.931962E-3,-1.7674421E-1,-9.084686E-2,1.6094117E-1,-8.1828326E-2,-1.565712E-1,-2.0481265E-1,-1.4018337E-1],"categories":[],"categories_nodes":[],"categories_segments":[],"categories_sizes":[],"default_left":[0,0,0,0,0,0,0,0,0,0,0,0,0,0,0,0,0,0,0,0,0,0,0,0,0,0,0,0,0,0,0,0,0,0,0,0,0,0,0,0,0,0,0,0,0,0,0,0,0,0,0,0,0,0,0,0,0,0,0,0,0,0,0,0,0,0,0,0,0,0,0,0,0,0,0,0,0,0,0,0,0,0,0,0,0,0,0,0,0,0,0,0,0,0,0,0,0],"id":22,"left_children":[1,3,5,7,9,11,13,15,17,19,21,23,25,27,29,31,33,35,37,39,41,43,45,47,-1,49,51,53,55,57,59,61,63,-1,-1,65,67,69,71,-1,-1,73,75,77,79,81,-1,-1,-1,83,-1,-1,-1,85,87,89,-1,91,93,-1,95,-1,-1,-1,-1,-1,-1,-1,-1,-1,-1,-1,-1,-1,-1,-1,-1,-1,-1,-1,-1,-1,-1,-1,-1,-1,-1,-1,-1,-1,-1,-1,-1,-1,-1,-1,-1],"loss_changes":[1.3285058E4,1.2044438E3,2.7171416E3,4.2054004E2,5.0222454E1,2.9609082E2,1.125837E2,8.595068E1,1.4169281E2,2.9746231E1,4.167931E1,6.58818E1,1.23603516E2,5.934355E1,9.235245E0,5.110791E1,5.6462317E0,6.529736E1,6.889506E1,2.7741728E0,2.685884E1,3.2973732E1,1.67123E1,1.9489899E0,0E0,4.3246777E2,3.629248E1,5.9753574E1,2.914626E1,1.2129429E1,8.917694E-1,4.594922E1,2.901648E1,0E0,0E0,6.490759E1,3.182013E1,9.725403E0,1.880262E1,0E0,0E0,2.2306736E1,1.8456429E1,2.7132057E1,2.650129E1,2.6398296E0,0E0,0E0,0E0,2.4989697E2,0E0,0E0,0E0,2.5664284E1,4.2307602E1,2.1331102E1,0E0,2.3692017E1,4.615013E0,0E0,2.5677643E0,0E0,0E0,0E0,0E0,0E0,0E0,0E0,0E0,0E0,0E0,0E0,0E0,0E0,0E0,0E0,0E0,0E0,0E0,0E0,0E0,0E0,0E0,0E0,0E0,0E0,0E0,0E0,0E0,0E0,0E0,0E0,0E0,0E0,0E0,0E0,0E0],"parents":[2147483647,0,0,1,1,2,2,3,3,4,4,5,5,6,6,7,7,8,8,9,9,10,10,11,11,12,12,13,13,14,14,15,15,16,16,17,17,18,18,19,19,20,20,21,21,22,22,23,23,25,25,26,26,27,27,28,28,29,29,30,30,31,31,32,32,35,35,36,36,37,37,38,38,41,41,42,42,43,43,44,44,45,45,49,49,53,53,54,54,55,55,57,57,58,58,60,60],"right_children":[2,4,6,8,10,12,14,16,18,20,22,24,26,28,30,32,34,36,38,40,42,44,46,48,-1,50,52,54,56,58,60,62,64,-1,-1,66,68,70,72,-1,-1,74,76,78,80,82,-1,-1,-1,84,-1,-1,-1,86,88,90,-1,92,94,-1,96,-1,-1,-1,-1,-1,-1,-1,-1,-1,-1,-1,-1,-1,-1,-1,-1,-1,-1,-1,-1,-1,-1,-1,-1,-1,-1,-1,-1,-1,-1,-1,-1,-1,-1,-1,-1],"split_conditions":[1.028399E-1,5.1447526E-2,1.0921215E4,1E0,4.8636634E-2,5.2889276E-2,2E0,3.999221E-1,2E0,1.5229793E4,2E0,3.5371605E-2,3E0,5.931091E-1,2.0508245E-1,3.2046795E-1,3.739508E-2,1.8342267E-1,2.6632497E-1,4.4626302E-1,2.8449602E-2,6.40226E-2,7.0064734E4,5.3715825E-2,2.7202395E-1,1E0,1E0,7.0064734E4,7.475002E-2,4.0494943E-1,3.1502554E-1,4.1915588E-2,3.5449356E5,1.4214592E-1,-3.1043435E-2,2.1492995E-2,2.9547125E5,3.425547E-2,6.29561E-2,1.286068E-2,1.4486332E-1,1E0,1.2426077E-1,1.2342952E-1,6.685746E4,9.422875E-2,1.2678309E-1,-2.3466854E-1,-8.00807E-2,5.2359664E-1,-5.769518E-1,-6.2161016E-1,-5.018272E-1,3.9898083E-2,9.035721E-2,2.132896E-1,-2.8288665E-1,1.8302025E-1,4.1525695E-2,-7.860383E-2,4.392744E-1,5.0110507E-1,3.5396105E-1,3.430133E-1,4.8686606E-1,4.9190053E-1,1.7077866E-1,2.9613543E-1,1.6829233E-1,3.211525E-1,7.358074E-2,-2.0071629E-1,5.101424E-3,-1.1856911E-1,1.2178122E-1,-2.637957E-1,-1.8682403E-2,9.6496046E-2,4.9675828E-1,1.2115406E-1,-1.7735444E-1,-1.4697824E-1,-5.099645E-2,-9.490442E-2,-4.3278313E-1,-1.1383097E-2,1.02757394E-1,1.3034417E-1,-2.1497837E-1,6.931962E-3,-1.7674421E-1,-9.084686E-2,1.6094117E-1,-8.1828326E-2,-1.565712E-1,-2.0481265E-1,-1.4018337E-1],"split_indices":[9,15,10,6,14,14,6,7,6,10,6,14,6,7,9,7,15,7,7,7,14,14,10,15,0,13,13,10,14,7,7,15,10,0,0,14,10,9,11,0,0,2,15,15,10,15,0,0,0,15,0,0,0,11,15,9,0,9,11,0,7,0,0,0,0,0,0,0,0,0,0,0,0,0,0,0,0,0,0,0,0,0,0,0,0,0,0,0,0,0,0,0,0,0,0,0,0],"split_type":[0,0,0,0,0,0,0,0,0,0,0,0,0,0,0,0,0,0,0,0,0,0,0,0,0,0,0,0,0,0,0,0,0,0,0,0,0,0,0,0,0,0,0,0,0,0,0,0,0,0,0,0,0,0,0,0,0,0,0,0,0,0,0,0,0,0,0,0,0,0,0,0,0,0,0,0,0,0,0,0,0,0,0,0,0,0,0,0,0,0,0,0,0,0,0,0,0],"sum_hessian":[1.262E3,6.16E2,6.46E2,5.38E2,7.8E1,3.84E2,2.62E2,3.8E2,1.58E2,4E1,3.8E1,1.1E1,3.73E2,1.42E2,1.2E2,3.74E2,6E0,1.31E2,2.7E1,6E0,3.4E1,2.1E1,1.7E1,6E0,5E0,1.81E2,1.92E2,1.09E2,3.3E1,6.2E1,5.8E1,2.69E2,1.05E2,3E0,3E0,3.7E1,9.4E1,9E0,1.8E1,3E0,3E0,1.5E1,1.9E1,7E0,1.4E1,1.4E1,3E0,3E0,3E0,8.8E1,9.3E1,7.6E1,1.16E2,9.2E1,1.7E1,2.6E1,7E0,1.8E1,4.4E1,4E0,5.4E1,2.33E2,3.6E1,7.7E1,2.8E1,2.7E1,1E1,5.6E1,3.8E1,6E0,3E0,6E0,1.2E1,1E1,5E0,1.5E1,4E0,4E0,3E0,1.1E1,3E0,7E0,7E0,4.5E1,4.3E1,2.8E1,6.4E1,4E0,1.3E1,1.7E1,9E0,1.4E1,4E0,1.8E1,2.6E1,1.8E1,3.6E1],"tree_param":{"num_deleted":"0","num_feature":"16","num_nodes":"97","size_leaf_vector":"1"}},{"base_weights":[-4.986733E-2,3.058056E0,-2.8179305E0,4.029823E0,1.3491983E0,-7.9406023E-1,-4.5341706E0,-2.4459866E-1,4.178259E0,2.1402092E0,-6.06493E-1,-5.5446506E-1,-5.251817E-1,-4.6550627E0,-3.3170586E0,1.3606892E0,-2.0442708E0,4.644375E0,3.6823215E0,2.5521038E0,5.508294E-1,-1.1493148E0,6.5109506E-2,9.4448286E-1,-8.786131E-1,-3.5631416E0,-4.7430453E0,-2.0145728E-1,-4.4635234E0,2.2100396E-1,-4.1171075E-3,-3.3536798E-1,-2.2379398E-2,4.73658E0,3.4274342E0,4.3704457E0,3.2033432E0,3.4845533E0,2.0443962E0,1.2506096E0,-8.363187E-1,-2.4707389E-1,-9.0692616E-1,-6.4066786E-1,1.5407311E0,1.9651101E0,6.247749E-2,-1.4227638E0,-2.8632933E-1,-6.124729E-1,-4.8603186E-1,-3.0108523E0,-4.773427E-1,1.7973827E0,-4.1487733E-1,-4.8749372E-1,-2.2110859E-1,3.5268E-1,4.820393E-1,1.6699922E-1,4.80405E-1,4.5031196E-1,2.1162899E-1,2.1224995E-1,3.6361703E-1,3.892773E-1,1.2119961E-1,3.4809634E-1,1.6816503E-1,1.9755422E-1,5.410045E-2,-4.259273E-3,-1.6229458E-1,-3.5019282E-2,-1.5145443E-1,9.45158E-2,-1.1953109E-1,2.6457202E-1,-7.78183E-2,2.4902256E-1,9.284142E-2,-1.2841597E-1,1.6932172E-1,-1.6462493E-1,-6.631564E-2,4.4796128E-2,-9.804715E-2,1.77734E-1,-3.3577538E-1,-9.2695534E-2,-4.0757996E-1,3.5782692E-1,1.3197137E-3],"categories":[],"categories_nodes":[],"categories_segments":[],"categories_sizes":[],"default_left":[0,0,0,0,0,0,0,0,0,0,0,0,0,0,0,0,0,0,0,0,0,0,0,0,0,0,0,0,0,0,0,0,0,0,0,0,0,0,0,0,0,0,0,0,0,0,0,0,0,0,0,0,0,0,0,0,0,0,0,0,0,0,0,0,0,0,0,0,0,0,0,0,0,0,0,0,0,0,0,0,0,0,0,0,0,0,0,0,0,0,0,0,0],"id":23,"left_children":[1,3,5,7,9,11,13,15,17,19,21,23,-1,25,27,29,31,33,35,37,39,41,43,45,47,49,51,53,55,-1,-1,-1,-1,57,59,61,63,65,67,69,71,-1,73,75,77,79,81,83,85,87,-1,89,-1,91,-1,-1,-1,-1,-1,-1,-1,-1,-1,-1,-1,-1,-1,-1,-1,-1,-1,-1,-1,-1,-1,-1,-1,-1,-1,-1,-1,-1,-1,-1,-1,-1,-1,-1,-1,-1,-1,-1,-1],"loss_changes":[1.1158012E4,1.0091963E3,2.379184E3,2.4783447E2,3.4627307E2,3.3459415E2,3.914746E1,4.3227497E1,6.981592E1,1.0268463E2,2.3771261E1,1.4708005E2,0E0,1.5283203E1,1.3126208E2,9.616354E0,1.5935709E1,5.084961E0,4.763452E1,5.2526123E1,3.4049667E1,9.289959E0,3.2230907E1,4.8487953E1,7.9520966E1,1.0802182E2,1.784668E0,9.4247505E1,1.4241577E1,0E0,0E0,0E0,0E0,6.42334E-1,3.3105743E1,1.2601074E1,4.5613647E1,3.5173096E1,3.7919373E1,1.0762791E1,7.423271E0,0E0,1.0294622E1,1.9600668E1,2.7682606E1,1.1297668E1,6.80548E1,2.0807465E1,6.160346E1,7.157494E1,0E0,1.3975838E1,0E0,2.537223E1,0E0,0E0,0E0,0E0,0E0,0E0,0E0,0E0,0E0,0E0,0E0,0E0,0E0,0E0,0E0,0E0,0E0,0E0,0E0,0E0,0E0,0E0,0E0,0E0,0E0,0E0,0E0,0E0,0E0,0E0,0E0,0E0,0E0,0E0,0E0,0E0,0E0,0E0,0E0],"parents":[2147483647,0,0,1,1,2,2,3,3,4,4,5,5,6,6,7,7,8,8,9,9,10,10,11,11,13,13,14,14,15,15,16,16,17,17,18,18,19,19,20,20,21,21,22,22,23,23,24,24,25,25,26,26,27,27,28,28,33,33,34,34,35,35,36,36,37,37,38,38,39,39,40,40,42,42,43,43,44,44,45,45,46,46,47,47,48,48,49,49,51,51,53,53],"right_children":[2,4,6,8,10,12,14,16,18,20,22,24,-1,26,28,30,32,34,36,38,40,42,44,46,48,50,52,54,56,-1,-1,-1,-1,58,60,62,64,66,68,70,72,-1,74,76,78,80,82,84,86,88,-1,90,-1,92,-1,-1,-1,-1,-1,-1,-1,-1,-1,-1,-1,-1,-1,-1,-1,-1,-1,-1,-1,-1,-1,-1,-1,-1,-1,-1,-1,-1,-1,-1,-1,-1,-1,-1,-1,-1,-1,-1,-1],"split_conditions":[3.999221E-1,1E0,1.5730007E-1,1E0,5.988272E-2,1E0,1E0,3.4386927E-1,2.584693E-1,2E0,1E0,1E0,-5.251817E-1,5.3686166E-1,2E0,6.727754E-2,3.950149E-2,4.4439387E-2,1.7247591E-2,2.0210095E-2,7.078014E-2,1.587591E-2,2.0284137E-1,4.1525695E-2,1E0,4.459668E-1,1E0,1E0,2.1632977E-2,2.2100396E-1,-4.1171075E-3,-3.3536798E-1,-2.2379398E-2,6.6988315E-3,4.7370404E-2,3.9506683E-1,1.04088925E-1,3.5419738E-1,1.6791926E-1,2.6378604E-2,1E0,-2.4707389E-1,5.5685367E-2,3.246974E-1,2.6726934E-1,5.831173E-1,1E0,2.4951082E-1,2E0,3E0,-4.8603186E-1,4.29205E-1,-4.773427E-1,3.0890977E-1,-4.1487733E-1,-4.8749372E-1,-2.2110859E-1,3.5268E-1,4.820393E-1,1.6699922E-1,4.80405E-1,4.5031196E-1,2.1162899E-1,2.1224995E-1,3.6361703E-1,